nep4 2 Ag B 
cutoff 7 4.5 200 68
n_max 8 8
basis_size 12 12
l_max 4 2 0
ANN 80 0
 -4.5314884e-01
 -2.2444325e-02
 -2.8505744e-02
 -9.9435849e-03
  5.0745918e-03
 -1.0210590e-02
 -1.1524454e-02
 -2.8844360e-01
  4.7940924e-03
  6.9787947e-04
 -3.0375004e-02
  2.3934275e-02
 -1.0941591e-02
 -1.5118641e-03
 -1.0932000e-02
  6.0571242e-02
 -3.5676204e-02
  2.5195684e-03
  6.2598549e-03
  1.3971504e-02
 -4.8447520e-02
  3.0152369e-02
  1.1894687e-02
 -2.7501442e-02
 -2.4710929e-02
  6.7044340e-02
  2.7228355e-02
 -4.4658245e-03
  1.1923463e-02
 -1.9099665e-03
  2.1960312e-03
 -3.8143336e-03
  8.9279702e-03
 -1.8087914e-02
  9.8607484e-03
 -2.6130371e-02
 -1.9897936e-02
 -7.6834723e-02
 -7.1237728e-02
 -1.5828963e-02
 -5.9516579e-03
  5.5382336e-03
 -3.9222769e-02
 -2.7590133e-02
  1.4869389e-02
  9.9737225e-03
  2.2698307e-02
  5.1778093e-02
 -2.7323596e-02
  8.7938078e-02
 -1.2500668e-03
 -1.5937811e-02
 -1.2628501e-05
 -1.7981171e-03
 -2.3530258e-02
 -3.4243964e-02
  2.7998257e-02
  6.6975765e-02
  6.2486790e-03
  6.9113220e-03
 -2.6775717e-03
  3.0796530e-02
 -7.9071037e-03
 -1.2257879e-02
  4.5926571e-03
 -6.5858830e-03
  1.1605999e-02
  3.8795002e-02
 -4.5464285e-02
  3.2742899e-02
 -6.4444384e-03
 -2.0422743e-04
  2.5661629e-02
 -1.0795752e-02
  6.2264211e-02
  4.0338188e-02
  2.5101192e-02
  4.3119892e-02
 -1.2269845e-02
  2.4042491e-02
 -1.5246015e-02
  2.1601617e-03
  6.2670477e-02
 -2.1255612e-03
 -2.2524137e-02
  6.5195531e-02
 -3.4440402e-02
 -5.5435430e-03
 -3.6454808e-02
 -2.0741057e-03
 -1.1019463e-02
 -5.1665690e-04
 -9.1884853e-03
  1.0235114e-02
 -1.2999830e-01
 -2.0642811e-03
 -1.0643094e-02
 -3.2484378e-03
 -1.2726489e-02
 -1.3070193e-02
 -4.3207514e-03
  6.8470801e-04
  3.1650372e-02
 -7.9330858e-03
  1.0927950e-02
  2.9777527e-02
  1.2296181e-02
 -4.2203055e-03
 -3.3712227e+00
  2.7374232e-02
 -2.1555044e-01
  2.4560370e+00
 -5.8975652e-02
  1.4944443e-01
  6.8448056e-03
 -1.9999928e+00
 -2.3789950e-01
 -4.4345874e-03
 -2.6338167e-02
 -5.5603734e-03
 -1.4881410e-03
  5.3687200e-02
  1.8214509e-03
 -3.3872798e-02
 -1.5114914e-02
 -5.3464961e-03
 -5.4154228e-03
 -1.8828057e-02
 -5.4056607e-03
  2.7640114e-02
  1.4350356e-02
 -1.8620469e-02
 -6.4042084e-02
 -1.8635962e-02
 -2.3068015e-02
 -1.0363226e-01
 -4.9959775e-02
  9.5097180e-03
  1.0067436e-03
 -5.7302876e-03
  5.7283849e-03
 -7.7062850e-03
 -2.9143335e-02
 -2.2793002e-02
  1.0902793e-03
 -2.1076366e-02
  2.1357540e-02
 -1.6815238e-02
 -6.2979877e-02
  1.1797453e-02
  3.6216553e-02
 -1.0734411e-02
 -1.0644765e-02
 -1.9365128e-02
 -4.0875699e-02
 -6.2452856e-04
 -1.1396024e-02
  3.8881872e-02
 -2.7312363e-02
  4.1940391e-02
 -2.5339099e-02
  4.3948106e-02
 -1.8621379e+00
 -3.3511326e-02
  1.4078735e-02
 -6.6407911e-02
  1.4194841e+00
  3.9727619e-01
 -2.1133631e-02
  8.6018711e-01
  1.9226996e-02
 -5.8349103e-02
  2.2177184e-02
  2.3585884e-03
  1.0147763e-02
 -2.0952657e-02
 -8.1560323e-03
  7.7859769e-03
 -4.1018404e-02
 -9.6832030e-03
 -4.4386577e-02
 -3.9914623e-01
 -1.6114727e-02
 -2.0589663e-02
 -9.0031158e-03
 -5.1362989e-03
  5.7893018e-03
 -3.0285776e-01
  3.8059838e-02
 -5.7272676e-02
  1.4664614e-02
  3.1490497e-02
  4.4987844e-03
 -1.8352163e-03
 -1.5077188e-02
 -5.0722510e-02
 -1.3980739e-02
 -2.1694809e-02
  7.8976028e-02
 -2.4597414e-02
  6.5970882e-03
 -3.2238733e-02
 -1.6507555e-02
  5.3958789e-02
  2.4373138e-02
 -3.2180175e-02
 -4.0737975e-02
 -5.2263420e-03
 -1.9293386e-02
  4.1457871e-03
 -9.6914340e-03
 -6.7570764e-03
 -6.3712955e-02
 -6.3318545e-03
 -1.0624671e-02
 -4.5339487e-02
 -1.1545667e-01
  2.2080080e-03
 -5.7941657e-02
  2.2577552e-02
 -1.9030368e-02
  1.5172702e-02
  1.3567112e-02
 -1.5191668e-01
 -2.0083912e-02
  1.7080190e-02
  8.3687846e-03
  2.9505087e-02
  5.1983343e-03
 -6.7719817e-02
  3.2313298e-02
 -1.3173858e-02
 -7.9675224e-03
 -1.7327882e-02
  1.2624313e-02
  2.7450262e-02
  8.1715444e-03
  1.9171592e-03
  8.2291011e-03
 -9.1887005e-03
  6.0823085e-03
  1.4699046e-03
 -1.5939791e-02
  1.6712930e-02
  4.7178841e-03
 -7.9224601e-02
 -4.2071845e-03
 -1.7575964e-03
  5.4475246e-04
 -5.0411724e-02
  5.1113423e-03
 -1.1732543e-01
  2.5613977e-02
  1.8262340e-02
 -1.2687928e-02
 -1.1935660e-02
  7.9059556e-02
  9.5753483e-03
 -6.2529733e-03
 -1.9887306e-02
  4.0513713e-02
  1.8519854e-02
  2.2617823e-02
 -1.3823313e-02
  3.1648938e-02
 -1.1802237e-02
  1.4400542e-02
  7.0426788e-04
  6.6249661e-02
  1.9484241e-02
 -3.4909101e+00
 -9.3682498e-01
 -1.1635331e-02
 -7.1841098e-02
 -7.6263420e-02
  6.7212039e-01
  7.8658834e-03
  1.3513381e+00
 -3.0983649e-03
  2.3927325e-03
  1.1119956e-02
  4.1611931e-01
 -1.9939430e-02
 -1.2746318e-03
  1.1824989e-03
 -1.8653448e-01
  1.6610103e-03
 -1.2860682e-02
 -1.4090009e-03
 -2.7655661e-02
  2.5448496e-02
  9.5020579e-03
  7.6962098e-02
  8.2889922e-02
  6.3608967e-02
 -5.2978236e-02
 -1.8679935e-02
 -2.4681561e-02
  2.0294726e-02
 -2.5514620e-03
  7.1831136e-03
  1.4347712e-02
  2.8419893e-03
 -4.4805091e-03
 -3.7594070e-03
  8.0799283e-03
  3.6466159e-02
 -2.6568234e-02
  3.7676655e-05
  3.2994173e-02
  5.7541328e-03
  1.8719855e-03
 -1.0441206e-03
 -2.3470860e-02
 -7.7244893e-02
 -7.6781847e-02
  2.4847547e-02
 -6.2223461e-02
 -2.8942386e-02
 -5.0796509e-02
 -2.0138714e-02
  2.6693862e-02
  4.7735297e-03
  2.1088913e-02
  8.3187290e-02
  6.1379327e-03
  9.9927327e-03
 -7.0832418e-03
  4.0669482e-02
 -1.4775917e-02
  3.5666634e-04
  1.3091926e-01
  9.7187802e-02
 -6.3345958e-03
 -8.7575763e-03
 -4.5717601e-02
 -2.5498174e-02
  2.1595981e-02
 -1.2530760e-02
 -3.9529849e-02
  2.1529958e-02
  1.8778250e-02
 -1.1180188e-01
 -4.9580429e-02
  2.2945287e-02
 -9.8741967e-03
 -3.8552149e-03
 -1.3610112e-02
  4.1316748e-03
 -5.5459950e-02
  4.3011121e-02
  8.6329496e-03
  1.1149778e-01
 -2.1951126e-02
 -2.1654055e-03
 -3.5194162e-02
  5.2265834e-02
  3.3297248e-02
 -8.7987753e-03
  4.9861693e-03
 -1.0215733e-02
 -4.9532121e-03
  6.1727474e-03
  9.1691650e-02
 -4.4795671e-01
  3.8582303e-02
  3.7996449e-02
 -1.6542152e-02
  1.8559612e-02
 -5.3233830e-03
  1.8328357e-03
  2.7331777e-02
  4.7128331e-03
 -5.4421015e-03
 -1.9262179e-03
  1.5088961e-02
 -3.9164573e-02
  1.4264696e-02
 -1.2024299e-01
  3.0343581e-02
 -1.9723101e+00
 -3.6872772e-03
 -9.2114685e-03
 -6.2176064e-02
  2.7969715e-01
 -3.0281028e-01
 -2.1080665e-02
 -1.2668764e-02
 -7.6230325e-02
  1.0903955e-01
  2.0144718e-02
  6.0012662e-03
  2.8498523e-02
  2.1242881e-03
  1.0371451e-02
 -1.0487513e-02
 -1.0115441e-02
 -2.1686099e-02
  1.5496345e-04
  7.4880086e-02
  2.2154046e-02
 -7.2491569e-03
 -8.7833991e-03
 -3.4342022e-03
 -1.1800391e-02
 -1.5591035e-02
 -3.4242328e-02
  3.8681582e-02
  9.2417130e-04
  8.8437097e-03
 -1.1197606e-02
  1.5465783e-02
  8.1030279e-03
 -1.8724481e-02
  1.2418015e-02
 -3.5647996e-02
  9.0416835e-04
  9.2840688e-03
  8.0873379e-03
 -2.0282927e-03
  1.3015150e-03
  1.2925804e-02
 -6.0419434e-01
  2.6250668e-02
  6.6419832e-02
 -1.4062230e-02
 -2.8549235e-02
 -1.3383118e-02
  3.1975552e-02
 -1.5864803e-02
  6.4087929e-03
  9.7980944e-04
 -1.9546397e+00
  2.2512062e+00
 -5.9769982e-01
  1.3172406e-01
 -6.9104582e-01
  9.5233046e-02
 -5.3425571e-03
 -1.9109969e-01
  7.0688955e-02
  4.3183309e-01
  1.3788110e-01
  2.7224877e-01
  1.3994905e+00
 -8.1002228e-03
 -6.2157220e-01
  1.7084466e-01
  1.3845843e-02
  4.4958028e-01
 -6.2633753e-01
  4.7166832e-04
  3.1765968e-01
 -6.6746235e-01
 -3.9338547e-01
 -2.6255153e-02
  3.1952667e-03
 -6.1516613e-01
  5.8999419e-01
  3.0698173e-04
  2.8363127e-02
 -2.1864677e-02
 -1.5705733e-01
 -3.7605646e-01
 -4.9111888e-02
 -2.8510526e-01
 -2.1548178e-02
  1.3391292e-01
  6.9636917e-01
 -5.1786256e-01
 -1.1794239e-01
  1.1491760e-02
 -5.1077336e-01
 -9.1610879e-01
  1.0976842e-02
  1.8385841e-02
  3.5403207e-01
 -2.3353849e-02
 -2.2465046e-01
  2.3999689e-03
  5.4475015e-01
  3.0757027e-02
 -4.8338003e-03
 -5.4970509e-01
  3.2182798e-02
 -1.1201361e-03
 -7.2755967e-03
 -2.8487914e-03
 -1.2009524e-02
 -2.2215547e-02
  8.9487433e-02
 -1.2953382e-02
 -9.8325098e-03
  1.2906678e-01
  1.9185392e-02
 -2.3621065e-03
  1.0535146e-02
 -3.6345355e-03
  9.9593103e-03
 -1.4670679e-02
 -4.3196827e-03
 -3.2363895e-02
 -2.9700939e-03
  3.2696176e-02
 -2.5754333e-02
 -2.7181439e-02
 -1.8980829e-02
 -2.2372510e-02
 -6.6315748e-02
 -4.5187391e-02
  2.0737741e-02
  6.5904008e-03
  9.6615832e-03
  5.7261739e-02
 -3.3895373e-02
 -4.5899075e-02
 -6.1357968e-02
  2.0364202e-03
  1.6473889e-02
 -4.5968838e-02
  2.6799819e-02
  1.6766729e-02
 -3.4089133e-02
 -9.3218323e-04
 -2.2863140e-02
 -1.3586657e-02
 -1.6872142e-02
 -5.5788131e-03
 -1.1939617e-02
 -7.3556630e-03
 -1.3803709e-02
 -3.6692105e-02
  1.1717517e-02
  1.8416757e-02
 -3.7295312e-02
  6.2388503e-03
  1.2423508e-03
 -2.7315177e-02
  5.0266366e-03
 -3.2671611e-03
 -5.3898925e-01
 -2.6281918e-03
  3.6990639e-02
 -4.3492153e-02
 -6.8191742e-03
 -8.7471902e-03
 -2.9403653e-03
 -2.8838826e-02
 -1.3103766e-02
  5.4785917e-03
 -3.3481056e-03
  1.1819301e-02
 -1.2369476e-03
 -7.3014777e-03
  3.5364958e-03
 -1.2029791e-02
 -1.4655085e-02
  1.3356972e-03
  2.7093913e-03
  1.4128908e-02
  3.8144186e-03
 -4.2406199e-03
  2.9435897e-02
  1.9567898e-02
 -2.9061714e-03
 -7.5713070e-03
  5.4467274e-03
  6.4468598e-03
  6.8330076e-03
  3.5350362e-03
 -3.2209605e-02
  5.4094572e-02
  2.0637367e-02
  6.8344716e-03
 -9.0940855e-03
 -7.5459364e-03
 -5.1977932e-02
 -3.6109481e-02
 -1.4806622e-02
 -5.5323816e-03
  5.5684216e-02
  5.1416932e-03
 -2.5791287e-02
 -1.7965533e-02
 -2.9022958e-02
 -4.0055618e-02
  1.8146808e-03
 -2.8066095e-02
  3.7833814e-02
  1.4979874e-02
 -3.6535606e-02
 -2.0357531e-03
  7.4575888e-03
  1.1591546e-03
  2.9634593e-02
 -4.7645443e-03
  1.5829816e-02
  6.9165424e-02
 -3.1799551e-02
  1.1682676e-03
  4.0894367e-02
  1.4675554e-02
  2.3526758e-02
  3.9706409e-02
 -1.1385411e-02
  1.5936682e-03
  7.7976830e-02
 -1.6300090e-02
 -9.3459403e-03
  5.3385280e-02
 -2.8801514e-02
  1.6320227e-02
 -5.7669845e-03
 -5.1010940e-03
 -1.9433005e-02
  2.4049049e-02
 -5.0191902e-02
  5.6144763e-02
 -1.3830651e-02
  3.0111749e-02
  1.9961368e-02
 -4.9208846e-02
  4.0565003e-03
 -1.1440907e-02
  2.5593404e-02
 -1.2168460e-01
  2.4028281e-02
 -3.8056464e-03
 -7.4155610e-03
  2.5995905e-02
  1.7234145e-03
 -1.2098308e-01
 -1.4345901e-02
 -3.3952937e-02
 -4.1421194e-02
  2.2355888e-02
 -3.6980800e-02
  1.3040002e-02
 -1.4903981e-02
 -2.3221185e-02
 -2.5318176e-02
 -1.4460613e-01
 -7.5009647e-03
 -1.1318170e-02
 -4.9136974e-02
 -7.8692408e-03
  2.8687686e-02
 -2.1844063e-02
  3.7733954e-01
  1.5790944e+00
  4.5314681e-02
  2.3555703e+00
  6.9066858e-01
 -8.1473123e-03
  6.0412459e-02
  3.4574139e-01
 -9.9820398e-02
 -5.9501696e-03
  1.6483629e-02
 -1.0653150e+00
  1.0428932e-01
 -2.1727124e-01
  6.6601136e-03
 -2.7847268e-02
  6.2901743e-02
 -1.6001667e-01
 -5.4344903e-03
 -6.8210179e-01
 -1.7119862e-01
  1.0483982e-02
  7.4516814e-03
 -1.5803130e-02
 -7.7678557e-03
  9.6653383e-03
 -4.5351587e-02
 -2.4883477e-02
 -4.7765020e-02
  7.1518920e-02
 -8.6195566e-02
 -8.6259190e-03
  2.1598469e-03
  2.7205404e-03
 -1.9011530e-01
 -9.5228106e-03
  1.6553403e-01
  1.5092127e-01
  5.4659151e-02
 -2.0071024e-02
 -9.4690556e-03
 -4.8811865e-01
 -4.7339834e-02
  1.1376923e-02
  1.7338017e-02
 -1.2205648e-02
  3.2663789e-02
  6.4620934e-02
  2.7197320e-02
 -1.7148323e-02
 -4.0022880e-02
  1.4478004e-02
  1.1963812e-03
  6.7397133e-03
 -5.1419640e-01
 -2.7423571e-03
  3.5103284e-02
  3.5878122e-02
 -2.2049253e-03
  1.0486009e-02
 -3.9991550e-02
  2.3291515e-01
 -2.6748842e-02
  2.5570992e-02
 -1.8473169e-02
 -7.3556363e-04
  3.0645201e-02
 -3.0028109e-02
  2.4790231e-02
 -2.2982652e-03
 -1.5672849e-02
 -4.7142836e-03
  9.4004003e-03
  2.8102092e-02
  2.8655026e-02
 -9.9430904e-03
  5.6844526e-03
  2.6143329e-02
  3.0143704e-02
  2.7446730e-02
 -9.3027793e-02
  2.2922451e-02
 -4.3688109e-04
  1.4676307e-02
  1.2216715e-02
 -1.4686625e-01
  2.7461834e-03
  9.6448883e-03
 -4.9331918e-02
  1.7380634e-02
 -1.5290362e-02
 -5.9696157e-03
 -4.9510349e-02
 -1.4755859e-02
  9.3241716e-03
  1.1074222e-02
 -2.8983377e-02
 -1.6694255e-02
 -1.4313365e-02
 -1.4410662e-02
 -2.7519064e-03
  1.6965168e-02
 -1.6533777e-02
  3.7121887e-03
 -5.8466801e-03
 -3.7012115e-02
 -1.3516364e-02
 -2.8260355e-03
 -4.8978306e-02
  1.0632476e-02
  1.5240027e-02
  6.6076390e-02
  3.2583668e-03
 -4.6218806e-03
  1.2053617e-02
 -4.2799860e-01
  3.5280462e-03
 -4.2569302e-02
  4.1169804e-03
  2.8759148e-03
 -6.7912634e-03
 -6.5789903e-03
 -6.1116248e-02
  7.7955879e-04
  5.8432713e-02
 -2.4229852e-03
 -1.7121438e-02
 -9.6079521e-03
 -7.4775025e-02
 -5.3245709e-03
  1.6750158e-03
 -6.7535089e-03
 -2.3664251e-02
 -1.4006831e-03
  1.4423330e-02
 -2.7221752e-02
  2.0113070e-02
 -2.1482766e-02
  4.1162506e-02
  1.3307282e-03
  2.1798043e-02
  9.6460860e-03
  2.7075492e-02
  7.5662886e-03
 -5.1857948e-02
 -3.7228316e-02
 -4.9325023e-03
 -8.2058040e-03
  3.5417574e-03
 -7.1729515e-03
  1.0119336e-02
 -3.8361933e-02
  3.8543551e-03
  3.2666948e-02
  4.6366146e-03
  2.1054350e-02
  1.8338758e-02
 -3.4569051e-02
  1.5714891e-02
  9.4349228e-02
  1.0359957e-02
 -2.1342121e-03
  1.3124076e-01
  1.2586924e-02
  4.4416362e-01
 -7.4129850e-02
  4.1904483e-02
 -5.2141666e-01
 -1.2007650e-01
 -1.6486797e+00
  5.6204718e-01
  8.7918842e-01
  1.0136227e-01
  4.0736672e-02
  1.2051676e-01
  5.5178579e-02
 -1.7192541e-01
  1.6760045e-01
  2.0588838e-02
  2.3633549e-01
  3.5972472e-02
  5.1186472e-01
  3.9337310e-01
 -2.3201231e-02
 -4.3219841e-01
 -1.5091832e-01
 -1.9718124e-02
  2.1169009e+00
  3.5618278e-01
  1.4666535e+00
 -7.0927657e-02
  7.0593551e-02
 -1.0582077e-02
 -1.4898481e-02
  6.3001900e-03
 -7.3900316e-03
  5.7681423e-02
  3.6547206e-02
 -1.8393125e-02
 -1.8681647e-02
  9.4039232e-02
 -7.4857883e-02
  1.4194075e-02
 -8.2425214e-03
  2.0477552e-02
  1.8152999e-02
  4.0534079e-01
  1.4770492e-02
 -7.2004721e-03
  6.8247598e-03
 -1.1039080e-02
  1.2451104e-02
  2.1832770e-02
 -2.4777239e-03
  6.4539827e-02
 -9.5143458e-03
 -1.0359377e-01
 -1.8643809e-03
  3.0322623e-02
 -1.3298878e-02
 -6.0783206e-03
 -1.1288563e-03
  5.5193715e-04
 -1.8899420e-03
 -8.3745988e-03
  3.4463618e-02
  9.3303882e-02
 -3.0468164e-02
  2.7524527e-02
  3.8460197e-03
  4.3585051e-02
 -4.4778213e-02
 -1.9280840e-02
  4.2654723e-03
 -1.1482880e-02
 -9.3854396e-03
  1.3013707e-02
  4.9096785e-02
 -7.5612189e-03
  2.1756429e-03
 -1.6611805e-02
 -2.6612937e-02
  7.5479019e-03
  3.9571878e-03
  6.0894694e-03
  1.6313538e-02
  8.9892615e-03
  3.4919162e-03
  1.2262745e-02
 -1.5420649e-02
 -8.9989612e-03
 -8.1822984e-03
 -3.6146335e-02
 -2.3377873e-02
  4.5530371e-02
 -5.2372939e-03
 -1.6067281e-02
 -7.1440912e-03
  1.6917260e-02
  9.9811843e-03
 -2.0362817e-02
 -1.0380145e-03
  1.5323007e-02
  5.5445330e-03
 -3.7466169e-03
  2.7984139e-02
 -3.4510408e-02
  2.6678782e-02
 -8.0769986e-02
 -2.3730282e-02
  7.4633765e-01
  3.7834160e-02
  1.1190283e-01
  3.4380279e-02
  2.3893194e+00
 -5.6714177e-01
 -4.2046156e-02
 -1.0997432e+00
 -4.7435309e-04
  2.0760249e-02
 -7.4769096e-03
  3.4588926e-02
  1.7084550e-02
 -3.2400754e-03
  1.2757286e-01
  3.0347973e-02
 -3.7524700e-02
  7.9440959e-03
  2.7539893e-03
 -2.4440996e-02
 -1.3975672e-01
 -2.2626664e-02
 -8.7368665e-03
  9.5055271e-03
 -6.8854278e-01
  3.6905210e-02
 -9.1607109e-02
  6.8068122e-03
 -6.5746084e-03
 -2.9007243e-03
 -2.3888549e-02
 -7.0468988e-03
  1.2077239e-02
  8.1299637e-03
 -1.6811777e-02
 -2.9798709e-02
  9.1489412e-02
 -2.6359757e-02
  4.7243363e-03
 -2.8406274e-02
 -1.6588178e-02
  2.6684986e-02
 -5.2260835e-02
  1.0666137e-01
 -2.2550497e-02
  2.2585494e-03
  2.2719605e-03
 -2.2399290e-02
 -5.3127192e-02
 -3.1061925e-03
 -5.6644040e-04
  2.7818548e-02
  1.9683633e-03
  2.7133970e-02
  1.0971714e-02
 -2.5686998e-02
  1.7362442e-02
 -4.7770995e-03
  4.2189229e-02
 -4.1519348e-03
  4.6555582e-02
 -6.1531421e-02
  1.2823637e-02
 -2.2096513e-02
  1.4955775e-02
  2.9863999e-03
 -2.4465794e-02
 -9.4349440e-03
 -3.1941071e-02
 -5.7515679e-03
 -1.6484822e-03
  1.2833851e-02
  7.0452459e-02
  2.4684556e-02
 -2.7885844e-03
 -4.0720228e-02
  2.2393486e-02
 -2.3916913e-02
 -2.3972239e-02
  6.3049658e-03
 -2.7447486e-02
 -7.3247119e-03
  2.7504690e-02
 -2.2609966e-02
  2.4682676e-02
 -4.5545321e-02
 -3.9681830e-02
 -1.1163096e-02
 -3.0690392e-03
  2.8272888e-02
 -2.4599520e-02
 -4.7493212e-02
  2.0502917e-02
 -1.3372798e-02
  3.5839684e-02
 -2.8170228e-02
 -1.7211962e-02
  2.6704741e-03
  6.4457655e-03
 -5.0840057e-03
 -1.7285625e-02
  4.9793083e-02
 -2.1689255e-02
  1.0696423e-01
 -3.6693979e-03
  7.1728922e-04
  1.9967847e-02
 -4.4940896e-02
  9.3755645e-01
  1.3520441e-02
  9.9040933e-02
  4.0562853e-02
  3.7802002e-01
  1.7447442e-02
  3.2636631e-02
 -1.9190605e+00
 -3.5058655e-02
 -2.9263368e-02
 -3.9350543e-02
 -3.7621253e-03
 -1.1317590e-02
 -2.9108655e-02
  1.1213554e-02
 -1.6976885e-02
 -1.4462298e-01
 -4.3521129e-02
  8.2427422e-03
 -6.6182581e-03
 -9.4400160e-03
  2.5654715e-02
  7.6838344e-02
  5.5543456e-02
  2.4051405e-05
 -1.8231429e-03
 -3.2495581e-02
 -7.2191969e-02
 -6.1182097e-02
  3.8732614e-02
  1.3965528e-02
  5.0072051e-03
 -1.4446566e-02
 -4.4249152e-03
  7.8070402e-02
  6.9267817e-02
 -6.3828393e-03
 -1.2288623e-01
  1.3113139e-03
 -6.0322989e-02
  4.5904666e-03
  5.5164788e-03
 -5.9682154e-04
  7.4650394e-03
 -6.0782367e-03
  1.3264908e-02
  1.7901471e-02
  2.0732448e-02
 -1.7730622e-02
 -1.2925228e-02
  3.3017371e-02
  1.5578957e-02
  1.9182559e-02
 -3.7173182e-04
  1.6176405e+00
  1.3970763e-02
 -5.3185276e-03
 -1.3112484e-02
  1.6468916e-02
  2.8311329e-02
  3.8429327e-02
 -1.4030477e-02
  6.8165048e-04
 -1.1728338e-02
  3.8667586e-02
 -4.0126988e-04
  1.3410722e-04
  1.0073915e-02
 -5.9813336e-03
  2.2411377e-03
  1.5672122e-03
 -5.8104778e-03
 -2.2454731e-02
 -4.7048684e-03
  2.0405080e-02
 -8.5041029e-03
  2.4689185e-02
  1.8788341e-02
  4.6517765e-03
 -4.9841810e-02
 -4.6912134e-03
  3.9260104e-02
 -2.5944669e-02
 -8.9771263e-03
 -1.3147038e-01
  3.9385401e-02
  4.6800707e-02
  6.3345902e-02
 -2.4087338e-02
 -3.9524566e-03
 -5.5834167e-03
  3.8569062e-03
  1.7961062e-02
 -1.9131070e-02
  3.4032114e-02
 -1.7860197e-02
 -9.3324529e-04
  8.3391787e-03
 -4.0100291e-03
  1.6389143e-02
 -6.4946385e-03
  3.2811303e-02
 -2.5739318e-02
 -1.7167065e-02
 -1.5852580e-02
  3.4761328e-02
  1.1556890e-02
  9.7311558e-03
  7.5944221e-01
 -5.4953923e-03
  1.3338580e+00
  2.5480213e-03
 -2.6005380e+00
  1.4888042e+00
 -2.4800272e-01
 -1.9373690e-01
  3.8587444e+00
  2.4792816e-02
  1.3005079e-01
  3.5882288e-01
  1.6611256e-02
  6.4425813e-03
 -2.6911700e-03
  6.2678874e-02
  8.7179706e-02
  5.7663708e-03
 -5.4029614e-01
  5.8105378e-03
  2.2725552e-01
 -7.5194642e-02
  7.8447806e-03
  5.0557368e-02
 -3.6926799e-02
 -2.3746698e-01
  5.8085121e-02
  6.6468497e-03
  9.7679488e-02
 -3.8243134e-02
  4.3810997e-03
 -2.4432680e-02
  6.3269748e-03
 -6.7483932e-02
  4.4791088e-02
 -8.1018131e-04
 -1.0402570e-02
  7.8409337e-02
 -1.7089032e-02
 -7.6179363e-02
 -5.1169060e-03
  3.2793023e-02
  2.9043155e-02
  3.8730968e-02
  1.6783406e-01
 -1.0140676e-02
 -2.9594440e-02
  2.6560830e-02
  3.3248167e-02
  5.9383227e-03
  2.4344750e-02
  2.5545605e-03
  1.1785433e-02
 -1.4030997e-02
 -6.8611640e-01
  1.0506989e-03
  7.3948480e-02
  3.8349070e-02
 -7.8412602e-03
  1.0359110e+00
  1.3426244e-02
  1.2207615e+00
  2.3525698e-02
 -4.6045315e-02
  4.4160239e-02
  1.2545841e-02
 -4.5635384e-02
  7.7978326e-03
  4.9073443e-02
  1.1799434e-02
  6.1695864e-03
  1.1822336e-02
  3.5925392e-02
 -2.1003975e-02
  4.0221098e-03
 -8.9572510e-03
  2.1472299e-02
  2.4581799e-02
 -6.0735006e-02
 -2.6055495e-06
 -3.6892537e-02
 -5.2852836e-03
  9.5469307e-04
 -7.2670584e-03
  6.5321890e-03
  4.1487725e-03
  2.1942029e-02
  3.9869741e-02
  6.1718059e-01
 -1.1742038e-01
  7.4897697e-03
 -1.6038175e+00
 -2.2419801e-02
 -3.5891128e-03
  7.1110888e-03
  2.3368716e-02
 -2.5481531e-01
  2.6324131e-03
 -5.0269861e-02
  1.1765708e-02
  1.5768746e-02
 -3.7253596e-02
  6.7795999e-03
 -3.2773696e-02
  1.1255015e-02
 -5.2813634e-02
 -1.9684542e-02
  9.6294992e-03
 -3.1010780e-01
  3.3978191e-01
 -8.3677389e-02
 -3.0462732e-04
 -1.0884923e-01
  1.7890874e-01
 -4.0912756e-01
 -9.2027301e-01
  5.6674278e-01
  8.6749978e-02
  9.8763958e-02
 -7.5210924e-03
  5.6977201e-01
  1.1176773e-01
 -4.7220170e-02
  3.3302277e-02
  4.2049322e-02
  2.0242393e-01
  9.0718037e-04
  5.4609984e-01
  2.4639394e-02
 -9.3231910e-01
 -1.7954823e-01
 -1.0033853e-01
  2.2742753e-01
  1.3191180e-02
  1.0708825e-01
  2.5578824e-01
  1.1408241e-01
  3.8476896e-02
 -1.2845504e-02
 -1.9168779e-02
 -1.4764525e-02
  3.2489814e-03
  2.5744274e-02
 -2.3713200e-03
 -1.0480313e-02
  3.2915693e-02
  9.9248104e-03
 -3.3797473e-02
  3.1231787e-02
 -8.9990003e-03
 -7.6303375e-03
  2.3599608e-01
  3.9437220e-01
 -3.5518408e-02
  2.6348870e-02
  1.8615564e-02
  2.6084905e+00
  2.2046592e-03
 -2.5480933e-02
 -9.0189502e-03
  1.6947607e-02
 -3.3910118e-02
  2.0474629e-01
  9.6266689e-03
 -5.4859337e-03
  9.2966075e-04
 -1.1107733e-02
  3.3079501e-02
  5.7438001e-02
  8.3982572e-03
 -4.8414458e-02
  1.6144557e-02
  7.1232924e-03
  9.6118581e-03
  9.6414108e-03
  5.3376194e-02
 -4.4259477e-02
  2.5627725e-02
  2.2262897e-02
 -1.3415284e-02
 -1.2397706e-02
 -3.3601005e-02
  1.3271627e-02
  3.5818326e-03
 -4.7263689e-05
  4.1027293e-02
 -1.7944384e-02
 -1.3707969e-02
  4.4502888e-02
 -1.3139099e-04
 -2.6995344e-02
 -3.9181300e-02
  2.3260010e-02
  1.9391565e-02
  3.4419227e-02
  1.5887689e-02
  2.6582735e-02
  4.0591788e-02
 -1.1703148e-02
 -7.4452460e-03
  7.8973239e-03
 -1.6600179e-02
 -1.7732091e-02
  1.4121044e-02
 -2.4009896e-02
  4.3595256e-03
  3.2490764e-03
  2.6502237e-02
  4.5604885e-02
  3.6341142e-02
 -1.4875922e-04
  1.2515825e-02
  3.9630484e-02
  2.1166056e-02
  2.2447456e-02
 -1.6533053e-02
 -2.2621569e-03
  8.6635664e-02
 -1.4177058e-02
  2.3056749e-02
  1.1249704e-03
 -3.6659718e+00
 -8.2381219e-03
  6.8767658e-03
  2.2482628e-02
  1.7378353e-02
 -2.4101773e-02
  3.2646056e-02
  1.7600317e-02
  1.7499849e-02
  1.8652704e-02
 -2.5512625e-02
 -4.7439560e-02
 -9.6839829e-04
  4.6502769e-02
 -4.7261263e-03
 -1.4431966e-02
 -7.5227357e-03
 -2.8812600e-02
  3.0045522e-02
  8.4803961e-03
  7.3062577e-03
 -7.9983864e-03
  4.5521893e-03
 -4.6462184e-03
  4.5956019e-02
 -1.3237419e-02
  6.3572163e-03
 -1.1155225e-02
 -2.3250047e-02
  4.6151299e-03
 -1.2909666e-02
 -3.6336854e+00
 -4.0978841e-02
 -2.2677045e-02
  1.4087277e-02
 -8.0470117e-03
  1.7777888e-02
 -4.2716075e-02
 -5.3079892e-03
 -9.3351565e-02
  7.0112897e-04
  2.5405344e-03
 -4.8230016e-03
 -4.6026949e-02
  2.0843316e-02
  7.6844660e-03
  9.8860217e-03
 -1.2872426e-02
 -2.6499858e-02
  1.3243783e+00
  2.2722816e-02
 -3.0828267e-03
  5.4769665e-02
 -2.5340538e-02
 -1.5729308e-02
 -1.7411171e-02
  9.3724227e-01
  5.7756551e-02
  4.4718375e-03
 -1.6667161e-03
  5.4124380e-03
  8.2565360e-02
  2.9255528e-02
  1.2397467e-02
 -2.0742929e-04
 -3.6393370e-02
  8.7406769e-02
  1.3452781e-02
  6.3051358e-02
  1.8952273e-02
  4.5827731e-02
 -2.8402040e-02
 -1.1858661e-01
  3.2163400e-02
 -2.7003032e-03
  2.5040397e-02
 -1.4195012e-02
 -3.3937325e-04
 -5.9773759e-03
 -4.4454164e-03
  2.1336711e-04
 -7.0702569e-03
  1.6757032e-02
 -5.2015367e-03
 -1.9607916e-02
  3.4619287e-02
  8.7615456e-03
  5.7742644e-02
  7.0077777e-03
 -6.2551303e-03
 -9.4310846e-03
  8.7591439e-02
 -7.6596215e-03
 -4.2552054e-03
  4.0359717e-02
 -2.9642062e-02
  3.6828057e-03
 -4.5753028e-03
 -2.7674455e-02
  1.9946618e-03
 -2.9265534e-03
  8.0258381e-03
 -1.2977869e-02
  2.3425423e-01
  9.6755363e-02
 -6.5642335e-03
 -3.7685886e-02
  1.6338300e-02
  3.5709344e-02
  1.0539527e-02
  3.6677128e-01
 -9.2465514e-03
  4.4278882e-02
  6.0562002e-03
  7.2040190e-03
  2.4510127e-02
 -1.0380090e-02
  2.9649835e-02
  2.3985535e-02
 -7.4711679e-03
 -1.3682215e-02
 -3.5808701e-02
  2.8625712e-02
  4.2691607e-02
 -6.5095411e-03
  1.8069323e-02
  7.5635435e-03
 -1.0760502e-03
  2.1558341e-02
  9.9415645e-02
 -9.3712416e-03
 -7.9378309e-03
  8.4705409e-03
 -1.3180180e-02
 -3.1454563e-02
  3.7378039e-02
  3.4522597e-02
  8.1699053e-03
  1.1992691e-02
  1.8740343e-02
  3.2106344e-02
  2.3697672e-02
 -2.8799687e-02
 -2.6329849e-03
  2.8852839e-02
  6.1434917e-03
  4.6744838e-02
  3.9847918e-02
  2.3355618e-02
  2.6163599e-04
  2.2009743e-04
  1.6368259e-02
  5.2207541e-03
  1.3384307e-03
  9.4818631e-03
  1.6912051e-03
  1.9481633e-02
 -7.2644085e-01
 -6.7873416e-03
  1.6189974e-02
 -1.9714382e-02
 -7.7274488e-03
 -1.1824514e-04
  3.6557028e-03
 -1.0753556e-01
  1.9669333e-02
  2.1022435e-02
  3.0569434e-03
  7.1958140e-03
  8.4383273e-03
  5.4592537e-03
 -1.9822089e-02
  5.4246668e-02
 -4.4179889e-03
  2.3315258e-02
 -2.5351169e-03
  6.5266225e-04
  4.4200603e-02
  4.1856831e-03
  8.0511533e-03
 -1.4612192e-02
 -1.5305591e-02
 -2.0605358e-03
  1.6597211e-02
 -5.1420964e-02
  3.3987178e-03
 -4.3540791e-02
  3.6509924e-02
 -3.9482582e-03
 -1.0991410e-02
 -2.1964462e-01
  5.2211862e-02
  4.1540512e-03
  2.8757455e-02
 -5.3391539e-02
  2.2222884e-03
  1.7083220e-02
  1.4650030e-02
  9.4108433e-03
  2.1811565e-02
 -7.9469457e-03
  1.4616379e-02
 -5.6605535e-03
 -4.2738225e-03
 -1.0814236e-01
 -4.8081741e-02
 -1.3254743e-02
 -1.5357534e-02
  4.4813890e-02
 -5.3783540e-02
  1.5240322e-02
 -7.5855225e-01
 -2.6836492e-02
 -2.5660675e-02
 -3.4264885e-02
  1.2038842e-02
  5.4365853e-03
  4.1510623e-02
 -1.7563614e-01
 -3.4883518e-02
 -2.5017554e-02
  2.3767375e-03
  2.2866724e-02
 -9.0037771e-03
 -2.9012140e-02
  3.3893172e-02
 -1.2094331e+00
  1.4133455e-02
 -9.5555056e-03
  3.5527658e-02
 -4.5346517e-02
 -1.8275207e-03
  4.8865555e-03
 -3.7795696e-02
  5.0740559e-02
  1.7747208e-03
 -9.4440849e-03
 -3.9747126e-02
  1.3833420e-02
  1.1645976e-02
  3.5934765e-03
 -5.0377115e-03
  2.8634309e-03
  6.0433932e-02
 -3.1730987e-02
  3.2649338e-02
  4.1805692e-02
  1.1092174e-02
  1.8919379e-02
 -2.1731542e-02
  2.3264522e-02
 -8.8346591e-03
  8.0581233e-03
 -1.1098543e-02
 -5.5057086e-02
 -1.9068629e-02
 -4.0098034e-02
  9.0485970e-03
  3.7130378e-03
 -1.4997683e-02
  2.9299934e-03
  4.4427998e-02
 -2.8836496e-02
  2.3716796e-02
 -4.2489376e-03
  1.8133527e-01
 -4.2136390e-02
  1.8224128e-02
  1.6018324e-02
  3.5708088e-02
 -9.2449840e-03
 -6.3056082e-01
  4.6031918e-02
  6.6673388e-03
 -2.4190526e-03
 -2.2406715e-03
 -2.6049130e-03
  1.1780006e-02
  4.1509382e-03
 -1.9061511e-02
  3.3331390e-02
  5.3812400e-03
 -1.7171631e-02
  6.6270009e-03
  3.3647995e-02
  2.7625980e-02
 -9.7243804e-03
 -6.5829153e-03
 -5.1806527e-03
 -8.8138077e-03
 -1.1442739e-02
 -1.1780400e-02
  1.0036496e-02
  3.3175871e-03
 -4.8356082e-02
 -3.3069670e-02
  1.9711661e-03
 -3.5497490e-03
 -3.1299598e-04
  1.7219897e-02
 -2.0215232e-03
 -2.6248869e-01
  6.4309560e-02
 -7.5220698e-03
  7.8903511e-03
  2.3505514e-02
  1.8399719e-02
 -1.4087869e-02
  6.3989363e-03
  7.3407479e-02
 -1.4389675e-03
 -7.9233080e-02
  1.4363158e-03
  2.5039930e-02
  8.4116338e-03
  3.8128216e-03
 -2.7743768e-02
  6.9272597e-03
  9.7414060e-03
  5.1471777e-04
  4.5409454e-03
 -4.8676275e-02
  3.9663326e-02
 -4.0629264e-02
 -4.3625548e-03
 -5.6370022e-04
  6.5257281e-02
 -1.4093500e-02
  1.9708176e-03
  4.6914448e-03
 -4.9213391e-02
 -4.5299339e-03
  6.1596883e-03
  2.4908584e-02
  1.3047214e-02
 -9.0957778e-03
 -1.0371595e-03
 -4.9239494e-02
 -2.0689346e-02
 -9.7676534e-03
  1.3385684e-02
  1.0006521e-02
  1.0290543e-02
 -1.6803605e-02
 -3.1932812e-02
  2.0808090e-02
  2.5045512e-02
 -5.3853421e-03
  3.5906755e-03
  4.6871457e-02
 -1.0126046e-02
  2.5417829e-02
  1.0810377e-02
  4.4625375e-02
  3.2454096e-03
  1.7912574e-02
 -2.1798339e-02
  2.9135011e-03
 -1.1462210e-02
  5.2885856e-02
 -1.5851075e-02
 -1.3327920e-02
  3.0196227e-02
  5.5439780e-03
  4.7242828e-03
  2.5172811e-02
  1.8348790e-03
 -8.4080376e-02
  2.0548878e-02
 -2.1543406e-02
  9.4810659e-03
  4.3123677e-02
  5.1544555e-02
  3.0943346e-01
 -6.4621447e-03
  2.5892474e-02
 -1.0357531e-02
 -5.4921072e-02
  5.9125923e-02
 -4.2000255e-03
 -1.9601062e-02
  4.4187322e-02
  7.8069614e-03
 -1.0300772e-03
  9.4819181e-03
 -7.1679344e-03
 -5.6127748e-03
 -3.0206703e-02
 -5.3209703e-02
  3.1470232e-02
  1.1832560e-02
 -7.0359367e-03
  1.6818294e-02
 -9.9050533e-03
  1.4759189e-02
  1.7207168e-02
  4.5639064e-02
  2.3211628e-02
 -5.8497679e-03
 -4.7853426e-03
 -9.0259954e-04
  5.5801470e-02
  5.6326233e-02
  2.2543813e-03
  2.2310700e-02
 -9.2502758e-02
 -6.6310298e-03
 -4.4590387e-02
  3.3228293e-02
  1.3704684e-02
 -1.2778429e-02
  1.2490668e-02
  1.5175812e-02
 -2.8085590e-03
 -6.0154940e-05
  3.0937372e-06
  2.8771648e-02
  3.3064494e-03
 -1.7866682e-02
  1.4139776e-02
  2.4943721e-02
  1.4590979e-02
 -6.8300837e-03
  9.6628023e-03
  2.3569225e-03
 -1.8142698e-02
  7.0192153e-03
  3.4151692e-02
  9.9310074e-03
  1.7515114e-02
  7.0057172e-01
 -4.0265256e-01
 -4.2473547e-02
 -1.7123777e-02
  2.9066762e-01
 -2.9634563e-03
  9.7830892e-03
  8.7317536e-03
 -2.1637876e-02
 -1.8269246e-02
  2.2216786e-02
  1.2350865e-02
 -6.7611538e-02
 -2.2447458e-02
 -4.2196908e-03
  1.4798651e-02
 -2.7923426e-04
  8.2823960e-03
  1.0035670e-02
  3.6253493e-02
 -1.0345732e-02
  1.7263537e-02
 -1.5964771e-02
  9.9337567e-03
 -1.2919438e-02
 -7.2090335e-02
  1.1439172e-02
 -2.9997505e-02
 -9.2916992e-03
  8.8684307e-03
  2.4575509e-02
 -1.2846448e-02
  2.4825890e-02
  1.4587503e-03
  1.7204862e-02
  1.0743855e-02
 -4.1812893e-02
 -7.2462643e-03
 -1.2770716e-02
  4.1769915e-03
  2.9682075e-03
  4.0825423e-02
 -3.2798249e-02
  4.1893208e-03
  4.5997626e-03
 -2.9658404e-04
  1.1566835e-02
  7.8541618e-03
  9.7003821e-03
 -3.3840484e-03
 -3.0747941e-04
  4.7546732e-01
 -5.2309982e-03
  8.9111812e-03
 -3.3334222e-02
 -3.8185321e-02
  1.7697655e-02
 -1.4494742e-02
  5.5181284e-02
 -3.9160483e-02
 -3.2119069e-02
  2.6465538e-03
 -3.6936190e-02
  1.3851600e-02
  4.8626348e-02
  9.2064114e-03
 -1.7488066e-03
  6.0776342e-03
  6.8177846e-03
 -8.1336737e-02
 -2.7953539e-02
  2.5923913e-02
 -8.3802883e-03
  2.9188879e-02
  2.9589706e-03
 -1.4698948e-02
 -5.5117611e-02
  8.7952372e-03
 -1.4868644e-02
 -4.9263174e-03
  1.4737962e-02
 -1.0713110e-02
 -1.2602583e-03
  3.6796521e-02
 -7.3533836e-03
  4.8314934e-03
  2.1723849e-03
 -1.3266783e-02
  1.4539893e-02
 -4.0476467e-02
 -7.9994857e-02
 -1.9472223e-03
 -1.4757758e-02
  1.0479206e-02
 -6.9369003e-04
 -3.5740245e-02
 -6.1357678e-03
  3.5380114e-02
  5.9527513e-03
  5.0647855e-02
 -1.9713143e-02
 -2.7081404e-02
  3.5874888e-02
 -1.0376975e-02
  1.5109770e-02
 -5.0356019e-01
 -1.0788012e-02
  6.9245617e-03
 -1.4037610e-02
 -1.9886896e-02
 -8.5937986e-03
 -1.5107679e-02
 -3.6581147e-02
  1.5305972e-02
  1.7092217e-02
  6.0868848e-02
 -5.7027187e-02
  6.7015095e-03
 -1.6049208e-02
  1.3255834e-02
 -2.1986511e-02
 -3.2346312e-02
  2.2032335e-03
  4.7706805e-02
 -3.3375951e-03
  4.2854238e-02
 -3.6548357e-02
 -8.0825668e-03
 -1.5581710e-03
  5.0138097e-02
 -8.4259463e-03
  4.4849850e-03
  1.7592913e-02
 -7.1975886e-04
  3.3735845e-02
 -3.6938440e-02
  2.4845174e-02
  2.5043324e-02
  4.5986869e-03
 -3.0777982e-02
 -7.1849255e-03
 -4.7552120e-03
  3.6883054e-03
  1.0489387e-02
  4.8663624e-02
 -2.7784681e-02
 -4.6737455e-02
 -5.4767355e-03
  5.9734896e-02
  2.3385573e-02
 -3.3768779e-03
  5.8827368e-03
  7.7089928e-03
 -3.1590945e-01
 -1.2645198e-03
  1.2836440e-02
 -6.8394751e-03
  1.8555306e-02
 -2.4542999e-02
 -1.2128681e+00
 -3.2582432e-02
 -1.9475425e+00
 -5.2354497e-01
 -2.1221189e+00
  5.7953194e-02
 -1.7414446e-01
  1.0555331e+00
  1.1321575e-01
  6.2130266e-03
  1.1392817e-01
 -1.4503682e-01
 -1.2381173e-02
  1.1692964e-03
  9.7437473e-03
  1.4512798e-02
 -1.0019183e-02
 -4.2042481e-03
 -5.7983240e-03
 -5.2448280e-02
 -4.3154359e-02
 -2.9271819e-02
 -3.9901710e-03
 -2.8968537e-03
  2.6945509e-02
 -4.9008049e-02
  2.7459126e-02
 -9.7346343e-03
  3.4096953e-02
 -4.5774048e-03
 -1.3268938e-02
 -2.8129412e-02
 -2.6136357e-04
  4.0441237e-02
  1.0791468e-01
 -1.3688504e-04
  8.9579937e-04
  7.7280447e-02
  2.4626313e-02
  1.6084563e-02
  2.3855032e-02
  8.1210144e-02
  1.2687815e-02
  8.3837636e-02
  2.9821990e-02
 -2.9763982e-02
 -8.3539570e-03
 -2.3221966e-02
  1.8540742e-02
  1.4568025e-02
 -3.4341548e-04
  5.8622826e-03
  1.3249110e-02
 -1.2725284e-02
  1.0987176e-01
  1.5303669e-02
 -5.8437455e-02
 -1.0867181e-02
  8.8183180e-04
 -1.8499715e-02
  1.6798506e-02
  5.6131240e-02
 -2.9387353e-03
  9.7946655e-03
  2.1171086e-03
 -1.0046056e-02
 -2.2119642e-03
  1.6749410e-02
 -2.0199582e-02
 -4.6836040e-03
  9.5122186e-03
  7.9798698e-04
 -5.4880586e-03
 -3.8814250e-02
  1.9911125e-02
  1.2131482e-02
  4.0811781e-02
 -4.1157879e-02
  2.0214051e-02
  3.7710682e-02
 -5.5116482e-02
  3.8753673e-02
 -1.9913284e-02
 -8.8589992e-03
  4.4117020e-03
 -1.2180296e-02
  6.5507209e-03
  5.3635119e-03
  1.7559662e-02
  8.8980347e-03
 -2.7069799e-03
  1.4111310e-02
  8.1184590e-03
  5.5530068e-02
  4.2239271e-02
  1.2636921e-02
  7.9239728e-03
 -1.1635886e-02
 -2.5227606e-02
  1.6549082e-02
 -1.0064704e-02
  2.0366313e-02
  1.7836315e-03
  4.2957771e-03
 -2.9422956e-02
 -2.2594944e-02
 -2.3598032e-02
  8.6301146e-03
  1.3192414e+00
 -6.0401615e-03
  8.9666760e-01
  1.1515219e+00
  1.0247591e+00
  3.3673428e-02
  2.0478740e-02
 -6.5861815e-01
 -2.2355166e-01
  6.8552919e-02
  4.8425928e-02
 -9.7340173e-01
  3.3797908e-01
 -1.3005567e-01
  2.3658916e-02
 -9.8315505e-03
  2.0407254e-02
 -2.8932315e-01
 -1.7633284e-02
 -4.4895541e-02
 -6.1638832e-02
  2.0181699e-01
  6.9041260e-02
  7.6431781e-02
 -1.6554505e-02
  2.0295324e-02
 -4.3308279e-03
 -7.4959181e-02
 -2.3247798e-03
  4.6739273e-02
 -3.8147846e-05
 -1.6396692e-02
  4.0266547e-02
 -5.2973613e-02
  1.7407173e-02
  4.2792521e-03
  1.5360780e-01
  6.1129160e-02
  4.0647137e-01
 -6.3219061e-03
  9.3901521e-03
 -2.8963435e-01
 -3.2433842e-03
  1.7677024e-02
 -1.5108731e-02
  5.6267777e-03
  3.8665373e-02
 -1.0774557e-02
  3.4863051e-02
  1.3936579e-04
 -3.6955178e-02
 -1.5080392e-02
 -2.6315056e-02
  8.0915624e-03
  2.7996419e-02
  8.6798798e-05
  1.5326246e-02
 -3.8042566e-01
 -9.9504292e-03
 -8.5093044e-03
  8.3628589e-01
 -3.0228985e-02
  4.0127765e-02
  2.0379886e-02
  6.4400127e-03
  2.4280660e-03
  2.1486241e-02
 -6.1087038e-02
 -3.2746486e-02
 -3.8549032e-02
 -5.2708186e-02
  1.7131805e-02
  1.1484426e-02
  5.7040546e-03
 -4.7902625e-02
 -3.9299648e-02
  5.1332809e-02
 -2.7211819e-02
  9.5183938e-04
 -1.7074822e-03
  1.3581078e-02
 -1.2990119e-02
 -1.7494597e-02
 -8.9177508e-03
  9.3920482e-03
 -1.9217957e-02
 -9.4243500e-04
 -3.1726651e-02
  6.3078711e-03
 -2.7379686e-02
 -6.0842872e-02
 -3.1081574e-02
  5.6176004e-03
  2.4585009e-02
  6.7576449e-03
  2.7815137e-02
 -3.3942249e-02
 -3.3632349e-02
  3.4135669e-02
 -5.3737719e-02
 -7.5989268e-03
  1.2918565e-02
 -2.4468808e-02
  2.9349893e-02
 -1.5018729e-02
  6.3646898e-02
  1.7529070e-02
 -1.1911321e-02
 -3.8854368e-02
 -1.3468037e-02
 -1.2467528e-03
  5.0102808e-02
  7.2350819e-04
  4.9561895e-03
 -1.2099556e-02
 -1.1373134e-01
 -1.4137809e-02
  2.3434339e-02
 -1.1414988e-04
  1.5151065e-02
 -4.6279463e-03
 -2.3634005e-03
 -8.8118669e-03
  2.6031502e-03
 -8.5275741e-03
 -1.5856570e-02
 -4.2830687e-02
  7.6102787e-03
  2.3883071e-02
  6.1623324e-03
  3.8642738e-02
  1.8060874e-02
 -1.5676545e-02
 -4.7225803e-03
  1.0557946e-02
  2.4737056e-02
 -1.3639886e-02
 -1.4328981e-02
  1.6968459e-02
  2.1403344e-02
 -1.2354996e-02
 -2.8136324e-02
 -3.1640761e-02
 -3.2828428e-02
  3.3646420e-02
 -6.7176566e-02
 -3.7290853e-02
 -1.2539527e-02
 -5.3964484e-02
  1.6993006e+00
  2.3248821e-02
 -3.8803243e-03
 -1.2989435e-02
 -1.6335364e-02
  7.8555979e-03
 -2.9239897e-02
 -1.7904971e-02
 -3.4131049e-03
  6.8545938e-03
  1.9129582e-02
 -1.3927571e-02
  9.9830246e-03
  3.1575330e-03
 -1.0610508e-02
  1.0060269e-02
  3.2791931e-02
  1.2898869e-03
  1.3420830e-02
 -1.6894912e-02
 -7.7859983e-02
  3.6423039e-03
  7.6561416e-03
  6.8968488e-03
  5.7510296e-03
  6.2172767e-02
 -1.6703114e-02
  1.3299072e-02
  1.6133286e-02
  1.2918522e-02
 -2.5468357e-02
  5.8466598e-02
 -9.1961697e-03
 -9.8657243e-02
  4.1465919e-02
 -2.4736846e-02
 -3.2238025e-02
 -1.8327191e-02
  2.0922218e-03
  2.1092712e-03
  1.9335706e-02
 -4.7146198e-03
  3.2443359e-02
  3.1093702e-02
  9.8212333e-03
 -1.8726073e-02
  1.2188079e-02
 -2.6664460e-02
 -2.2167170e-03
 -1.6585123e-02
 -1.6457731e-02
 -1.9642480e-02
  9.1785379e-03
  5.1280383e-02
 -3.4971617e-02
  1.1367243e-02
 -8.5436255e-03
  6.4122993e-03
 -1.0763045e-02
  1.6019724e-02
 -8.6255990e-02
  2.1878062e-02
 -4.5153361e-02
 -2.6699286e-02
 -4.9749617e-03
 -3.1157838e-02
 -3.8401713e-03
 -5.8213618e-02
 -7.0573566e-03
 -1.1174092e-02
  6.3990117e-03
  3.3409115e-02
  2.9480229e-03
 -8.6861916e-02
 -6.4802460e-02
  1.8913897e-02
 -1.3389784e-02
 -1.2109438e-02
 -1.8350189e-03
  6.1838578e-02
  4.5458436e-02
 -8.7164175e-03
 -6.4669894e-03
 -1.3175051e-02
 -3.3077383e-03
  7.4580684e-02
 -4.5734722e-02
 -2.2725273e-02
  8.5486993e-03
 -1.0251338e-02
  2.2254728e-02
 -5.7611899e-03
  2.1628567e-03
  4.8440930e-02
  6.8929650e-02
  1.4136113e-02
 -1.3646640e-01
 -1.6534606e-02
 -3.7580654e-02
 -1.7288692e-02
  1.4407832e-02
  2.8859951e-02
 -5.8000434e-02
 -6.3126315e-03
  1.0279704e-02
  5.2014668e-02
  1.8302411e-02
  3.3169635e-02
  2.3040106e-04
  1.5135296e-03
  1.1399912e-02
 -2.4669675e-02
 -2.7325794e-03
 -5.3990297e-03
 -4.1911431e-02
  1.1757924e-03
 -9.6155293e-03
  4.7267694e-02
 -1.3955686e-02
 -7.7925879e-03
 -1.6492753e-03
  1.5174909e-01
  4.9418665e-02
 -1.3886137e-01
 -1.3230352e-01
 -8.3458349e-03
  1.3392952e-01
 -1.3249765e-01
  3.6498439e-01
  1.5456669e-01
  4.5385095e-04
 -1.9541067e-01
  8.9094071e-03
 -1.4993498e-03
 -9.7818822e-03
  9.8058237e-03
 -7.5482689e-03
  3.6007110e-02
  3.5978403e-02
  1.5110858e-02
  1.1925278e-02
 -1.7774941e-02
 -7.1093638e-04
  1.9649774e-02
 -1.9383579e-02
 -2.9116194e-03
 -8.0912572e-04
  9.5744543e-03
 -1.9913210e-02
  8.4077865e-02
  4.0016212e-03
  5.1119093e-02
  9.7960723e-04
 -1.9079441e-02
 -3.9230157e-02
 -1.6785355e-03
  4.0456988e-02
 -2.3331935e-02
 -4.4660475e-03
  6.5700360e-02
  1.1514926e-03
  6.0074747e-02
  3.5418861e-02
  5.9103342e-03
 -1.1546584e-02
  7.7665197e-03
  6.5926723e-02
  1.1233639e-02
 -1.3081692e-02
 -1.3230316e-02
 -3.4059305e-02
  1.0597997e-04
  8.7009910e-03
  3.0950680e-02
  1.7726116e-03
 -1.3330309e+00
  3.7940990e-02
  7.6119781e-02
 -3.5505757e-02
  2.7635446e-02
  2.5513604e-01
 -3.3773072e-02
 -2.2139069e-01
 -5.3065713e-03
 -2.8867126e-03
  5.6770388e-03
  2.7737742e-02
  6.7044934e-03
  1.4941087e-02
  2.7637199e-02
 -8.0500823e-03
  1.5463836e-02
  5.4420516e-02
  2.0907191e-03
  8.2357647e-03
  1.6639061e-02
 -6.3715219e-03
  1.8561160e-02
 -6.2084071e-02
  1.3500385e-02
  7.7463179e-03
  5.5818269e-03
  1.0874417e-02
  6.3645869e-02
 -8.1560425e-02
  2.6787212e-02
  4.1719287e-04
  2.3263885e-02
  1.7194003e-02
  6.7384583e-01
  5.7045370e-02
  1.2774733e-02
  5.6374833e-02
 -5.7627134e-02
  2.3534829e-02
  3.4037862e-02
  1.7112330e-02
  1.0921204e-02
 -1.0002682e-02
 -4.4368081e-02
 -1.7652081e-02
  3.4761238e-03
  4.0039890e-03
 -2.3325652e-02
  2.2492642e-02
  3.0623250e-02
 -1.0246849e-02
  3.5836391e-02
  1.1569625e-02
 -9.5276511e-01
 -3.9492892e-03
 -7.2616842e-03
  9.2297401e-03
  3.0777621e-01
 -1.9709263e-02
 -1.8694254e-02
 -1.0549866e-01
  1.4077350e-02
  1.6150964e-02
  2.6457254e-02
  2.1946922e-02
  2.5293006e-02
  1.2871761e-02
 -2.3825444e-02
  6.5170988e-02
  1.8638968e-03
 -1.2182647e-02
  3.2865990e-02
 -2.5802381e-02
 -5.2947705e-03
 -1.1556481e-03
 -2.2011243e-02
  2.1917328e-02
 -5.2791494e-03
  2.9186871e-02
 -1.1581675e-02
  7.9217916e-03
  5.0377636e-03
  2.3667626e-03
  3.0073361e-02
 -1.5173022e-02
 -3.1022467e-03
 -2.6042074e-02
  3.5731703e-02
 -4.0152753e-04
 -4.3626692e-02
  8.0393963e-03
 -3.3894852e-02
 -2.7416041e-03
  1.1299094e-02
  4.7552634e-02
 -3.9667513e-02
  1.3443138e-02
 -1.0081560e-02
 -2.4264196e-02
 -2.9350864e-02
  1.6244367e-02
  1.2199637e-02
  2.5294425e-02
 -1.7816229e-02
  1.7039606e-02
 -3.1065818e-02
 -1.5768293e-02
 -3.0668814e+00
 -4.7774270e-01
  1.9736372e-01
  2.4758264e-01
 -3.0316356e-01
 -1.1672547e+00
 -4.6472624e-02
 -1.7644050e+00
  1.6722674e-02
  6.9581490e-04
 -1.4722141e-02
 -2.5124297e-02
 -3.0133165e-03
 -2.5087435e-02
 -5.3167369e-02
  5.1237669e-02
 -1.1098680e-02
  2.9908530e-02
  2.3693906e-02
  1.4470299e-02
  2.0709028e-02
  7.2714783e-02
  3.8055729e-02
  1.2758704e-02
 -1.9454330e-02
  2.5863426e-02
  4.1680988e-03
  3.4264281e-02
 -9.8737940e-02
  6.3047791e-03
 -1.3187882e-02
  3.2621801e-02
 -1.6485400e-02
 -1.3512033e-03
 -4.8802052e-02
  2.0999862e-02
  9.4438300e-02
 -4.4086304e-02
  4.9190852e-03
  2.1778289e-03
 -2.8883114e-02
 -5.6477389e-03
  1.3930294e-01
 -1.1207917e-02
 -1.9122511e-02
  4.8889980e-02
  1.9283623e-02
 -5.6215068e-03
  1.3773335e-03
  6.4018648e-03
 -6.9628120e-05
 -4.1239318e-03
 -2.0950729e-02
  4.1736122e-02
  5.5516273e-01
 -2.6227426e-02
 -1.2706671e-02
 -6.0857618e-03
  2.4449605e-02
 -4.7696386e-03
 -8.3217099e-03
  4.5723114e-02
 -5.6873634e-03
  2.9098488e-02
 -4.7625229e-02
 -6.9786687e-03
  1.5732870e-02
  1.1678646e-02
 -4.6223544e-02
  3.3927251e-02
  3.1856997e-03
  3.0671074e-03
  4.3670867e-02
  6.6179726e-03
  2.3918319e-02
  5.4261717e-04
  3.3324432e-02
 -3.6115348e-02
 -8.0861850e-03
 -2.1669392e-02
  6.8119362e-02
 -3.9881647e-02
  2.4929743e-02
  5.2359002e-03
 -8.6907260e-03
  8.7332064e-03
 -3.7179396e-02
  7.4396175e-03
 -4.0944768e-03
 -2.3461290e-02
 -2.4881095e-02
 -1.1218491e-02
 -2.5231931e-03
 -5.4966244e-03
 -1.0503160e-02
  5.9568867e-02
  2.0687118e-02
  1.3440605e-02
  1.6809594e-02
 -1.1570244e-02
 -1.5820581e-02
  2.3255061e-02
  1.7595317e-03
  1.0662749e-02
  6.5113276e-02
  1.7222311e-02
 -5.7413708e-02
 -2.7848599e-02
 -6.1080140e-01
 -2.7867788e-01
  2.6026252e-01
  8.7012649e-01
  5.0626896e-02
 -6.3900214e-01
  1.4786486e-03
 -7.9625320e-01
  3.6709802e-03
 -2.7973078e-02
  2.2338765e-02
  6.1956751e-01
  1.8121479e-01
  5.3377789e-02
  3.6365520e-02
  7.3642978e-03
 -3.4595381e-02
 -4.6018880e-02
  1.6660804e-02
 -7.5721246e-01
  1.6689438e-01
  1.9176519e-01
  5.2596685e-02
 -1.1332666e-02
  2.5789959e-02
  3.5327084e-02
 -4.9978006e-03
 -8.2657021e-03
 -3.3946815e-01
 -1.2101780e-03
  6.7394036e-03
  1.2861076e-01
  7.5516112e-02
  1.7006435e-01
 -9.2657499e-02
  1.4942631e-02
  1.3651171e-01
 -2.4625433e-03
  5.4033816e-02
  4.0788382e-02
 -3.3166781e-02
 -2.5207892e-01
  1.8852291e-01
 -2.6875645e-02
  2.4987785e-03
 -2.0653797e-02
  1.1230739e-02
 -3.8955558e-02
  3.9252091e-02
 -6.8420419e-03
  3.3779550e-02
 -1.8442756e-02
 -1.2745258e-01
 -3.6175195e-02
 -4.0098433e-03
  3.4620096e-03
 -6.2661193e-02
  1.1328254e-02
 -2.8239543e-02
 -5.8949343e-03
  9.3342764e-03
  6.5872625e-02
 -4.0779617e-02
  8.5191987e-02
 -8.5503506e-03
  1.0399129e-03
  2.7526035e-03
  1.1105306e-02
  3.6494914e-02
 -7.5530042e-03
  2.4533164e-02
  8.6494647e-03
  6.1533689e-03
 -6.4522244e-02
  2.8665233e-02
 -3.9714002e-03
  3.9069090e-02
  6.5893438e-03
  3.1934254e-02
  1.6263876e-02
 -3.2050055e-02
 -7.9063267e-02
 -1.2264564e-02
  2.6927825e-02
 -3.9744385e-02
  3.1870198e-02
  1.7056324e-02
  6.1126146e-04
  1.4288969e-02
 -7.4493080e-01
 -2.2758802e-02
  1.8134722e-03
 -2.2696748e-03
  9.4763259e-04
 -2.9237221e-03
  7.7604493e-03
 -2.6973385e-02
  7.7196406e-03
 -7.4562002e-03
  9.4476994e-04
 -6.8211355e-03
 -2.7047863e-02
  1.2335425e-02
  3.6711190e-02
 -2.1624167e-03
 -9.0484871e-03
  3.1460162e-02
  4.7760084e-02
  1.2032281e-01
  5.5851759e-03
  2.1047633e-02
 -7.0004254e-03
  2.6301114e-02
  4.1370699e-03
  3.2676556e-03
  1.1511668e-01
 -2.7294261e-03
 -1.2739379e-02
 -8.7684682e-03
  7.9265395e-03
  3.4520919e-03
 -1.1909447e-02
  2.5105176e-02
  1.3326991e-03
  1.1812500e-02
 -8.7299163e-04
 -6.3782157e-03
  5.5407256e-02
  1.0395685e-02
 -2.0238863e-02
  2.7749617e-02
  7.3028561e-03
  2.8113425e-02
 -1.0042468e-03
  1.5605262e-02
  1.2779684e-02
  1.2728820e-03
 -7.3517952e-04
 -4.3856618e-03
  5.2982718e-02
 -2.3626177e-02
  5.3920850e-02
 -3.5459749e-02
  1.9590339e-02
  2.5270779e-02
 -1.1997516e-03
 -6.4142577e-02
 -3.8985688e-02
 -1.1012915e-02
 -1.7103144e-03
  2.3409653e-02
  1.6281441e-02
  2.9197468e-03
 -4.2928010e-03
 -4.3117488e-03
 -2.4822529e-02
  1.0316609e-03
 -1.6391560e-02
  1.8722459e-03
 -1.2491275e-02
  3.5535211e-03
  1.8869797e-02
 -7.1619660e-01
 -1.4145196e-02
  2.2320758e-01
 -7.0046306e-02
 -2.4703809e-04
 -1.5314765e-02
 -2.3694197e-04
 -4.6886794e-02
 -1.7123679e-03
  1.1132468e-02
  1.2906544e-02
 -2.2176063e-02
 -1.7943988e-02
  7.4282028e-03
  8.0615636e-03
  3.2793872e-02
 -6.1067957e-02
 -3.6594983e-02
 -2.0857157e-02
 -3.9726794e-02
  4.0785804e-02
  1.3425620e-04
 -3.5254076e-02
  3.1504743e-02
  1.3699360e-02
 -2.5917463e-02
  1.5667345e-02
 -1.9846549e-02
  1.8826224e-02
 -2.9057441e+00
  4.5126339e-04
 -8.2894810e-04
  2.5778109e-02
  1.0324734e-02
  1.1858438e-02
 -4.0023066e-02
  1.2125474e-03
 -4.3247067e-03
  4.8866766e-03
 -9.6706860e-04
 -1.3944030e-01
  1.3760224e-02
  3.7974343e-02
  2.4007598e-02
  4.3320291e-02
 -6.0431012e-03
  2.2413876e-02
  2.0256705e+00
 -1.4821628e-02
  7.2648698e-03
  2.4199249e-02
  2.3688700e-02
  1.1280417e-02
  9.1005606e-04
 -1.2915788e+00
  1.8968770e-03
 -1.2340408e-02
 -2.5540611e-02
 -9.4767436e-02
  2.7005790e-02
 -2.1622660e-02
 -9.0044670e-02
  6.4965978e-05
  1.5398208e-04
 -2.7850191e-03
  1.5480469e-03
  5.5569582e-02
 -1.0427383e-02
  1.4079651e-03
  1.7723074e-02
 -2.9086473e-03
 -3.2521643e-02
 -9.3378937e-03
 -1.9321166e-02
  1.4352459e-02
 -1.7600352e-02
 -6.0151024e-03
  1.2485281e-01
  2.2065300e-03
 -1.7262243e-02
 -9.6331358e-02
 -7.0647416e-03
  3.0792981e-02
  2.5315521e-02
  4.6329472e-02
 -2.1866644e-02
 -1.6404113e-02
  8.6852713e-03
  3.7989896e-02
 -2.4222168e-03
 -1.6295467e-02
  1.9628335e-02
 -8.2193520e-03
  4.2352169e-03
  2.8920630e-03
  1.0885912e-02
  5.9104976e-03
 -2.1219401e-02
 -3.0080689e-02
  6.1410679e-03
 -9.6443864e-03
  3.5559829e-02
 -5.1062390e-02
 -4.3043528e-02
  1.7674314e-02
 -3.5954691e-03
 -7.9117060e-02
  1.3994086e-02
  9.1416445e-03
 -1.2196645e-03
 -1.9020284e-02
  1.7996959e-02
 -7.8128977e-03
  1.7862689e-02
 -3.0534778e-02
  4.2872168e-03
 -8.0645960e-03
  3.4720026e-02
 -8.6582482e-02
 -2.5716295e-02
  1.0355476e-02
 -8.6281754e-02
 -2.0722622e-02
  4.6688348e-02
  6.0316536e-04
 -3.0929865e-02
 -4.3356761e-02
 -1.6476613e-02
 -2.4223929e-02
  4.9277386e-03
  3.7514552e-02
 -3.1006802e-02
  1.4909273e-01
 -4.8588324e-02
  2.7979640e-02
 -1.9722620e-02
  3.6047544e-02
 -3.4528483e-02
 -5.4557793e-02
  7.1742954e-03
 -1.6532931e-02
  3.5951495e-02
 -5.2585710e-02
  1.3498991e-02
  1.1392773e-02
  2.1633253e-02
 -2.8611198e-03
 -1.5201785e-02
 -4.3817642e-03
 -1.7489890e-03
 -2.3874933e-02
 -2.3998955e-02
  7.8470856e-03
  1.1202665e-02
 -4.5381643e-02
  1.6042721e-02
 -8.6958357e-04
 -1.5963627e-02
  1.9851945e-02
  2.1255889e-03
 -1.4378457e-02
 -3.2130103e-03
 -2.3204627e+00
  1.3408909e-02
 -4.6523693e-03
  1.4587959e-02
  9.5631070e-03
 -1.2754460e-02
  6.0121462e-02
 -2.1471908e+00
  1.4839918e-02
  4.3221842e-03
  1.5377067e-02
  1.8615788e-02
  9.8230399e-04
 -6.0045542e-03
  1.8443740e-03
 -6.7854617e-03
  1.4719754e-02
  4.9695638e-03
 -2.1391410e-02
 -5.3462656e-03
  1.4185997e-02
  1.9647937e-02
  1.3079820e-02
  1.8961182e-02
 -9.0803197e-03
  5.5485480e-02
  4.0432621e-02
 -1.5066745e-02
  8.3054379e-02
  1.1241120e-02
  1.8236667e-02
  7.3699839e-02
  4.3118969e-02
  2.6065184e-02
 -1.1811840e-02
  7.7424189e-03
  2.6442235e-02
 -1.8741911e-02
  1.3109695e-02
  1.5709292e-02
  3.0588605e-02
 -4.1399952e-03
 -8.3136540e-03
 -1.5384057e-02
 -1.3476557e-02
  8.4448196e-03
 -1.7650982e-03
  3.0056600e-04
  7.1012266e-02
  2.5631672e-02
  6.1322123e-02
  1.7616527e-02
  2.9157827e-02
  1.0590025e-02
  1.4739407e-03
  2.7761873e-02
  2.7857378e-02
 -5.1915720e-03
  2.3890086e-03
 -1.5266686e-03
  6.8463730e-03
  1.8671963e-02
 -2.7447661e-02
  3.6449559e-02
 -8.5997190e-03
  2.1471288e-03
  1.3410593e-02
 -2.0009249e-02
 -8.1489962e-03
  3.1365234e-02
  1.5772867e-03
  1.8272011e-03
  7.4483468e-03
 -5.9734364e-03
 -9.8080905e-03
  2.4006208e-02
  4.9364753e-02
  4.0354848e-02
 -2.4829565e-02
  1.6475050e-02
  4.9425461e-03
 -1.3221661e-02
 -1.2513123e-02
 -5.9918081e-03
 -2.4221295e-02
 -8.4388647e-03
 -8.5631311e-03
  1.1024391e-02
 -2.2404213e-02
  3.1571832e-02
  1.2432344e-02
  9.4153045e-05
 -2.3214568e-03
  8.3057247e-02
  5.6513585e-02
  2.3027837e-02
  8.2125003e-04
 -3.7049963e-03
 -4.5825280e-02
  1.9509471e-03
 -2.3433654e-02
 -4.8061319e-02
  1.5455488e-03
 -7.4729919e-03
 -5.5241762e-03
 -5.1010892e-02
 -3.3964716e-02
  1.5543316e-02
 -2.6028410e-01
 -1.2794727e-02
 -1.3308696e-03
  2.9988609e-02
 -1.5898194e-02
 -2.5474278e-02
  5.0562075e-03
 -1.5110594e-01
  1.3735028e-02
  4.6287496e-03
  7.5850464e-02
  2.0705960e-03
  3.3616222e-02
  1.6818777e-02
 -1.8930675e-02
 -9.2024639e-02
  1.8860248e-03
 -5.3517342e-02
  2.2495935e-02
 -2.8891012e-02
 -9.2534004e-03
 -1.0586449e-02
 -1.6372453e-02
 -4.4652533e-02
  6.0420763e-03
 -4.0717758e-02
  2.9435800e-03
 -5.3890161e-02
  2.4856629e-02
  1.1513864e-02
 -2.5621444e-02
  1.3383970e-02
  2.6703186e-02
  4.4122826e-02
  2.1448424e-02
 -2.0090595e-02
  2.5027795e-02
 -7.6612481e-04
  3.8013123e-02
 -4.5255329e-03
 -4.5055062e-02
  8.0884472e-03
 -4.3263915e-03
 -1.6952585e-02
  5.2767400e-02
 -6.3435719e-03
  2.9323025e-02
  2.5370635e-02
  1.3997713e-02
 -1.6854793e-02
 -1.9898701e-02
  4.9570795e-02
  1.2265146e-02
 -3.4388460e-02
  1.5954728e-01
 -2.3516896e-01
  7.6373308e-03
  7.4052662e-03
 -3.1642320e-03
  2.9437477e-02
 -5.8127856e-03
  3.7316410e-03
  1.7101744e-02
  1.0328231e-01
 -2.3894310e-02
  3.4772924e-03
  8.2731228e-03
  8.3368696e-02
  3.7745271e-02
 -4.5857567e-02
 -7.4031646e-05
  9.8962914e-03
 -5.9886570e-03
  3.9213795e-02
 -2.3988415e-03
  1.3044054e-02
  7.6376284e-03
 -2.0342313e-02
  2.7687312e-03
  9.8201598e-04
 -4.4316021e-03
 -5.2568831e-02
  4.5801677e-02
 -4.8254966e-03
 -1.6186750e-02
  1.5162435e-02
  2.3470750e-02
  1.8425822e-02
  2.4379585e-02
  1.2681297e-02
 -3.2694753e-02
  1.4315340e-03
  1.3271065e-01
 -1.8685691e-02
 -1.0614641e-02
  3.7182163e-02
 -9.4380789e-04
  2.2984231e-03
  2.1803757e-02
 -5.5177789e-03
 -1.4916031e-02
 -1.0475374e-02
  8.9749120e-02
 -8.5530877e-03
 -4.4733550e-02
  4.8337067e-03
  1.3809706e-02
 -3.2119656e-01
  3.6789627e+00
  2.2593927e+00
 -2.0823395e-01
  3.3837405e-01
 -4.8095283e-01
 -4.1739874e+00
  2.9929247e-02
 -2.3581316e+00
  1.5212956e-01
  2.8331214e-01
 -3.2360429e-01
 -1.2018557e+00
  1.1845163e-01
 -2.1637723e-02
 -7.3584458e-03
  3.2254896e+00
 -1.1863632e-02
  3.7199378e-02
 -2.4431122e-02
  4.0613049e-01
  2.2003196e-01
 -7.9751760e-01
 -1.8739709e-01
 -4.2027315e-01
  1.4129928e-03
 -6.6559517e-04
  3.0067965e-01
  9.1953147e-03
 -1.1004812e-02
 -1.4092185e-02
 -3.2366291e-01
  6.0971268e-02
 -4.2434594e-01
  5.2867049e-01
 -8.5055560e-02
  2.3127563e-02
 -5.0446950e-02
  8.1898533e-02
 -4.0335734e-03
 -8.2666367e-01
 -1.0940846e-01
 -2.2598770e-01
  4.9992377e-01
  1.0673297e-02
  3.8114045e-02
 -5.1007634e-01
 -1.5199993e-02
  7.3269382e-03
  1.2038232e-01
  1.4203310e-02
  2.2030875e-02
 -2.6593870e-01
  2.5369087e-02
  6.9951726e-04
  8.8248736e-01
 -1.4733018e-02
 -7.9712477e-03
 -3.7183166e-02
 -1.4932947e-02
  1.5089341e-03
 -9.4247740e-03
 -9.8385799e-01
  2.4715627e-02
  1.5617760e-02
 -1.1387272e-02
 -8.3939642e-02
  1.0409536e-02
 -3.9078958e-02
 -2.2880067e-03
 -6.9410638e-03
  1.4081693e-01
  7.5369240e-03
  1.7395386e-02
  1.4966784e-02
  8.9479312e-02
 -6.8751723e-03
 -2.3262082e-02
  2.4292117e-02
  1.6977109e-02
 -1.5946485e-03
  5.9189714e-02
  6.5733805e-02
  4.7408752e-03
  1.3631932e-04
 -3.3286072e-03
 -3.8358923e-02
 -6.8146676e-02
  2.6801730e-02
  1.0609777e-03
 -1.8588562e-03
 -1.3723459e-02
  2.4123171e-02
 -4.6165150e-02
  9.3642641e-03
  1.0575756e-02
 -1.9181243e-03
  2.2438893e-03
  3.2764342e-02
 -5.1774918e-03
  2.6706548e-02
 -5.3112879e-03
 -2.6944987e-03
  1.1371136e-02
 -1.7679747e-02
 -2.7456684e-02
  5.1371292e-03
 -4.2723581e-02
 -1.1142255e-03
 -6.7514026e-01
 -6.0025834e-02
  6.0456153e-02
  1.5278626e-04
 -1.2410246e-02
 -1.0985116e-02
  7.7182995e-03
 -3.4892573e-03
 -3.6386242e-03
 -6.5795369e-02
 -4.5051835e-02
 -7.5240168e-03
  1.2861501e-02
 -4.2115794e-03
 -1.8290609e-02
  3.6914032e-02
 -3.8414013e-02
  8.3195856e-03
  1.3085129e-02
  2.2538252e-02
 -1.2559416e-02
 -1.6706814e-03
  3.2856404e-03
  5.0657649e-02
  1.2035957e-02
 -7.8793243e-02
  1.2021611e-02
  7.9026807e-04
 -2.3708139e-03
 -5.4884788e-02
 -6.7151738e-03
  3.4528696e-03
 -1.4613219e-02
 -7.5997105e-03
  3.5517350e-02
 -5.2518863e-02
 -6.4031102e-02
 -2.0729648e-02
 -1.6564958e-02
  4.2793468e-02
 -2.4656892e-02
  1.6300036e-02
 -2.9951995e-02
 -1.0283804e-02
 -1.4416865e-02
  4.7055483e-03
 -2.9494923e-02
  5.0792354e-03
  1.3765491e-02
 -1.0397369e-02
  9.8587014e-05
 -2.0209146e-03
 -1.7541153e-03
 -7.7498294e-03
  1.6669081e-01
  4.7590800e-02
 -3.6040112e-02
 -1.4505753e-03
  4.2862156e-03
  1.8405402e-02
  1.1489001e-02
 -7.3885992e-03
  6.1045690e-03
 -5.2583981e-02
 -1.7731177e-02
  1.9518165e-02
 -2.1955927e-03
 -1.7948037e-02
 -1.3843490e-02
 -2.5411908e-02
  9.3884598e-03
 -1.3933225e-02
  4.0979948e-02
 -6.7443936e-04
  5.3213760e-03
 -1.5492628e-02
  1.5280453e-02
  2.2511765e-02
 -1.6260955e-02
  6.2394105e-03
  5.0728347e-02
 -3.2610349e-02
 -7.6355673e-02
  5.9764650e-02
  9.5905289e-03
 -1.2061740e-03
  3.2147489e-02
 -2.1148963e-02
  1.6517373e-02
 -1.3330411e-02
 -2.9532071e-02
 -5.7212068e-03
 -2.8362319e-02
 -3.5188064e-02
  1.2664939e-04
  2.2462443e-03
 -3.0809583e-02
 -5.0380997e-02
 -2.8418075e-02
  2.8928673e-02
  3.5282068e-02
 -5.2629435e-04
 -5.5685207e-02
 -9.6263792e-03
 -7.8892270e-03
 -1.4089668e-02
  1.5002156e-02
  3.9070845e-04
 -1.3845851e+00
  2.8578799e-02
 -1.3472188e+00
 -1.2073388e-02
  1.4195429e-02
  4.5622248e-02
  9.6451662e-02
 -1.3316685e+00
  5.6922124e-03
  2.2189117e-03
 -3.6856875e-02
  2.2339549e-02
 -1.6524622e-02
 -2.3518717e-03
 -6.3891811e-03
 -9.1930740e-03
 -1.2551344e-02
 -4.9466562e-02
  1.9628635e-02
  1.0160469e-02
  5.5299766e-02
  1.9865725e-02
 -7.9886671e-03
  1.0383405e-02
  2.6509119e-02
 -3.3000197e-02
 -1.1608016e-01
 -1.5871182e-02
  8.8478709e-03
  6.6922665e-02
  2.2579825e-02
  2.7597053e-02
 -5.8017205e-05
 -2.5876686e-03
 -6.7764884e-03
 -3.1873696e-03
  1.6587662e-02
 -1.4220156e-02
  7.0838467e-03
  9.4161294e-03
 -1.8465310e-02
  5.0272521e-02
 -7.7661373e-02
 -1.0698657e-02
 -7.2122827e-02
  1.5894277e-04
  2.8954798e-03
 -2.0480396e-03
  2.0882783e-03
 -1.2783558e-03
 -3.6738131e-02
  9.2033604e-03
 -2.3222154e-02
  4.0719401e-02
  2.1626718e-01
  2.8150246e-02
  3.6370785e-03
 -5.8307992e-03
  2.4434336e-02
 -1.3703749e-02
  3.0135855e-02
  2.8075755e-01
 -2.6353899e-02
  2.6003192e-03
  2.4553079e-02
  2.5927610e-04
 -6.4027049e-03
  1.6200498e-02
  1.4208244e-02
  1.5566467e-02
  3.6311977e-02
 -1.3885741e-02
 -2.1437254e-02
  1.1522243e-02
 -4.2927034e-02
 -1.6397666e-02
  4.3131611e-03
  5.6291278e-03
 -3.0134996e-02
  1.6936289e-01
  2.1211158e-02
 -2.2610940e-02
  9.8115303e-02
 -3.0538836e-03
 -5.3450121e-03
 -3.9130808e-03
 -6.8784682e-03
  3.2826908e-02
  1.3999778e-02
  7.5007360e-03
  1.7254654e-02
  1.6922062e-02
  3.0864575e-03
  1.6493103e-03
 -6.5587531e-03
 -2.1861609e-02
  8.6750148e-04
 -2.2923527e-04
  1.3122079e-02
 -1.5768301e-02
 -9.7069129e-02
  8.1282265e-02
  2.2297114e-02
  5.1878965e-03
  3.6985256e-02
  1.1244334e-02
  4.2373482e-02
  2.3673498e-04
  3.5429475e+00
  6.7674577e-01
 -1.1335953e-01
  5.2788120e-02
  4.2982683e-02
 -1.0101247e-01
 -3.8833998e-02
 -5.0550860e-01
 -7.9822568e-03
 -1.5723981e-02
  4.6867825e-02
 -4.1150701e-01
 -2.0577719e-02
  4.7968822e-03
 -5.9758622e-02
 -3.3825807e-02
 -9.8968651e-03
  3.9744623e-02
 -4.2693725e+00
 -1.3400095e-02
 -1.4908546e-02
 -5.6136638e-02
 -1.3059007e-02
 -4.0422257e-02
 -2.6961498e-02
 -3.8952334e-03
 -1.3286158e-02
  6.2939808e-02
 -5.7607567e-01
 -3.2000132e-02
 -1.1612263e-01
 -1.8568659e-02
 -7.4471314e-03
  1.8747218e-02
 -5.1712587e-02
 -2.0010805e-02
 -1.7619049e-02
 -6.5027140e-03
 -4.0135821e-03
 -1.8558639e-01
 -3.3516788e-03
 -7.3930784e-04
  3.4158129e-02
 -4.6628516e-02
  2.5423497e-02
 -4.8090416e-01
  1.8626966e-02
 -5.0963834e-02
  3.0933350e-02
 -3.1306678e-03
  3.0812291e-02
 -4.3124333e-01
 -2.1189731e-02
  4.6251286e-03
 -3.8001558e-01
  2.3865385e-02
 -9.3505517e-02
 -1.6240820e-02
 -4.6259660e-04
 -6.1172573e-03
 -5.6431655e-02
  2.4563357e-01
  1.9136323e-01
  1.5092988e-01
 -5.5446639e-03
 -2.4658930e-02
 -1.2406544e-04
 -2.0094980e-03
 -4.8649460e-03
  2.5529215e-02
  9.4095178e-02
 -4.1395269e-02
  2.7729694e-02
  9.4726279e-02
 -5.6664960e-04
 -2.9900404e-02
  2.5918349e-03
  2.5777936e-02
 -1.6067361e-02
 -1.9940645e-02
  8.2676858e-02
  1.5628321e-02
  1.1252435e-01
  4.7501627e-02
 -3.6812916e-02
 -2.4590859e+00
  1.4876916e-02
  2.3967050e-01
  9.9857543e-03
  4.5595050e-02
 -1.3777652e-02
  7.3968731e-03
 -7.7202238e-02
 -4.5900512e-03
 -2.3091403e-03
  3.4724241e-03
  3.1360194e-02
 -7.6371860e-03
 -7.8894477e-03
 -6.8495058e-02
 -1.3810328e-02
 -2.5573086e-02
  6.0003251e-03
  5.3338492e-03
  1.9815825e-02
  2.1453606e-02
  3.3848397e-02
  2.0244507e-02
  1.2214109e+00
 -7.4582212e-03
  1.8864222e+00
  1.6248366e+00
 -1.0081503e+00
 -2.1870832e+00
  7.4492103e-01
 -1.5226823e+00
 -3.2856774e-01
 -8.2053341e-02
 -1.4984077e-01
 -4.9110439e-02
 -9.1034734e-01
 -1.0189598e-02
  9.4994493e-03
  8.4533161e-03
 -4.3730069e-02
 -7.2474444e-01
 -1.6058439e-02
 -6.9797105e-01
 -2.9589120e-01
  1.8362895e-01
  9.4323568e-03
  3.5585236e-02
 -1.0828006e-01
  1.6604711e-01
 -4.9914339e-01
 -3.0615594e-02
 -6.8618916e-02
 -4.1995805e-02
 -1.3351964e-03
 -2.6089791e-02
  4.6108705e-03
 -2.4323003e-02
 -6.6731766e-02
 -5.5115050e-01
 -4.7781613e-02
 -2.6306897e-02
 -2.1726738e-01
 -2.2877583e-03
 -2.3800986e-01
 -7.1150765e-02
 -1.1188012e-01
 -6.8480521e-02
 -2.9533890e-01
 -2.2412252e-01
  6.9659717e-02
  2.4053814e-02
 -4.5166846e-02
  4.0361799e-02
  6.6016410e-03
  5.0317064e-02
 -9.9076489e-03
 -3.2140496e-03
  6.5246612e-02
  4.0671960e-02
 -1.0538159e-03
  9.9592116e-03
  1.5406054e-01
  5.3363394e-02
  4.7527459e-02
 -3.2795501e-01
  2.7031479e-02
  3.2218783e-03
  1.3803456e-02
  6.0223590e-04
  8.0872718e-03
  8.4157698e-03
 -3.6876906e-02
  2.9067560e-03
  3.8632471e-02
  1.4862969e-03
 -1.6720215e-02
 -2.2375464e-02
 -1.2515727e-02
  1.0232875e-02
  3.6524341e-04
 -2.5265183e-02
 -8.2710590e-03
 -5.5727098e-02
  1.5427927e-03
  2.6890252e-02
  5.9964973e-02
  7.8690331e-03
  1.5670132e-02
 -2.2861432e-02
  4.0521096e-03
  4.2363754e-03
  1.8320907e-02
  1.3249006e-02
  1.4555387e-02
  1.0906644e-01
  1.1335647e-02
 -5.2831871e-03
  6.2388461e-02
  3.8585763e-02
  1.5074838e-02
  7.0798355e-03
  2.2316098e-02
 -1.1021786e-02
  9.0300990e-03
 -7.1820933e-03
 -1.1043776e-02
 -1.4859259e-02
 -8.4629012e-03
  3.8061060e-02
 -1.1327232e-02
 -1.3000485e+00
 -9.7136813e-01
 -1.7168553e-04
 -3.6764078e-02
  1.3534494e-02
  5.7800853e-04
  2.2669150e-02
 -2.2303930e-02
  6.6891700e-01
  1.6693957e-02
 -1.8857023e-02
 -1.5329445e-02
  5.0184548e-02
  9.9407770e-02
 -4.3990929e-03
 -1.5615380e-02
  1.2479013e-02
 -3.8845560e-03
  1.6429599e-02
 -2.4656512e-02
 -6.5034837e-03
 -1.2853238e-02
 -7.1227141e-03
  1.0620508e-02
  4.4888244e-03
 -2.1984322e-02
 -1.1453053e-02
  2.7668975e-02
  1.1900362e-02
 -4.5038328e-02
  7.9311151e-03
 -2.5803663e-02
 -3.4340914e-02
 -7.6990039e-03
  5.5569094e-02
  3.4721715e-03
  1.9119918e-02
  3.2038484e-02
 -1.4101145e-02
  4.5414560e-02
 -3.8270168e-03
  1.4601508e-02
  3.6926521e-04
  2.0540528e-02
 -1.9243404e-03
  2.5959346e-02
 -4.5682299e-03
  4.6057403e-02
 -1.9835981e-02
  7.6624202e-03
 -2.9167360e-02
 -2.0986969e-02
  1.3546439e-02
  1.5536412e-02
 -1.6268451e-02
  7.7154446e-01
 -1.6285564e+00
  6.9605595e-01
 -4.0879636e+00
  4.9615455e+00
  9.2083228e-01
 -3.8378053e+00
  8.3604038e-01
  1.0495051e+00
  1.1775728e-02
  7.1536802e-02
 -1.3561645e-01
  3.4207684e-01
  6.9480069e-02
  6.7368452e-03
 -9.2832796e-02
  3.9045113e-01
  2.5059013e+00
 -1.0058870e+00
 -1.0471987e-01
  4.9200314e-03
 -1.1993642e+00
  4.4244219e-02
 -1.5088929e-02
  1.0907941e-01
 -6.5542832e-02
  1.8421277e+00
  4.6526883e-02
 -7.4320447e-01
 -5.2328516e-02
 -4.0467273e-02
 -3.4812830e-02
 -2.8827497e-01
 -8.3645612e-02
  5.5022442e-01
  2.0026762e+00
 -1.2557803e-03
 -6.5080333e-01
 -2.7171084e-01
 -5.4115863e-03
 -1.8020906e-01
 -3.7157871e-03
 -3.5658348e-02
  1.6686258e-01
  7.5995404e-01
 -2.3549771e-02
 -1.6518413e-01
 -2.0587682e-03
  2.8000158e-01
  4.1980579e-02
 -6.6755777e-03
 -1.2799950e-01
 -1.3224850e-04
 -6.3316375e-02
 -5.4031867e-01
  6.7775674e-02
  1.5780579e-02
 -1.0580861e-02
  5.3959843e-02
  3.5437386e-02
  4.0411294e-02
  1.1207798e-02
  4.0431488e-02
  2.0216243e-02
 -6.4126978e-04
 -2.0482805e-02
 -3.2034490e-02
 -1.0293875e-02
  5.9859464e-03
 -1.4497122e-02
 -1.4088801e-03
 -5.3239577e-02
 -3.0884094e+00
 -4.1061104e-03
 -4.8702963e-02
 -3.1222738e-02
  6.3144356e-02
  2.3585195e-02
  2.0665661e-02
 -1.1717243e-02
 -3.7178227e-03
 -8.6422134e-03
 -5.3743478e-03
 -1.1238826e-02
 -8.4872488e-03
  1.2994865e-02
 -6.2546879e-04
 -8.3425818e-03
  5.3238980e-03
  1.1548160e-03
  1.5597738e-02
  1.9697018e-02
  6.9936281e-03
  8.3223521e-04
 -1.3584820e-02
 -8.1500541e-03
 -8.3675832e-03
 -1.0310820e-02
 -6.8182889e-03
  1.7913757e-02
  2.2201343e-03
  9.8032244e-03
  1.2308422e-03
 -4.6136908e-02
 -1.2336087e-02
  1.8808687e-03
 -6.8485923e-03
  5.6713931e-03
 -3.1848528e+00
 -1.6612558e-01
  1.4359511e-02
  2.1375271e-02
  7.9076365e-04
 -4.8301243e-03
  2.8112833e-03
 -1.8613874e-03
  6.4651715e-03
 -1.4617211e-02
 -1.5765454e-03
  5.2494206e-02
  1.9655027e-03
 -1.4589306e-02
 -3.2375142e-02
  5.9704166e-03
  1.4853552e-02
  2.8434079e-03
  1.0530244e-02
  1.3836504e-02
  3.4307390e-03
 -1.8858545e-02
  5.4158438e-02
  1.7225683e-02
 -1.0397560e-01
  1.9501276e-02
 -7.7916547e-03
  5.9960637e-02
  3.9349217e-03
 -1.0653511e-01
  2.1400822e-02
  4.7347821e-02
 -1.2402647e-02
  1.8146837e-02
  5.0666016e-03
 -4.0358617e-03
  1.3340176e-02
 -2.7228703e-03
 -2.5216897e-04
  1.6952273e-02
 -5.3877380e-02
  1.2323004e-03
 -1.8960223e-02
 -2.2153584e-03
 -5.3870495e-02
 -7.4918475e-04
  5.2481581e-02
 -1.2600698e-02
  4.0780086e-02
  3.1335372e-02
  2.4943156e-03
  1.1854378e-01
 -5.7655171e-02
 -8.6197443e-03
 -1.9517186e+00
  5.2241259e-03
  1.3568223e-02
 -5.9714904e-03
  2.7808171e-02
  1.2284288e-02
  4.0209824e-03
 -8.6932778e-02
 -1.7831026e-02
 -9.9264402e-03
  3.4386883e-03
  2.1436552e-02
  2.2199282e-02
 -3.7642315e-02
 -1.1177033e-03
 -6.9524124e-02
 -2.6532901e-02
 -1.6940534e-02
  8.6012647e-02
  2.6365252e-02
  2.6543390e-02
  1.6607923e-02
  2.9348519e-02
  2.2118893e-03
 -9.5357941e-03
  2.8202933e-01
  2.7619600e-03
  4.4095749e-03
  1.6876527e-03
  1.0817902e-02
  1.0309108e-03
  4.1966913e-03
  1.0066121e-01
  1.9900726e-02
  1.3593012e-02
 -3.1922238e-03
  1.5233848e-02
 -8.8481931e-03
 -4.9966858e-03
 -3.9460521e-02
 -1.5038946e-02
 -7.7424739e-03
 -2.2990199e-02
  3.4799710e-02
  8.4795272e-03
 -7.3873796e-02
 -3.1548768e-02
 -2.3967057e-02
  9.9909594e-03
  3.6620460e-02
  4.9456265e-03
  1.4085261e-02
  1.0815117e-02
 -2.5802033e-02
  1.0015061e+00
 -2.0146659e-02
  8.4316827e-02
  1.4282189e-02
  1.8335672e-01
 -1.6217816e-01
  3.7600596e-02
 -2.3870840e+00
 -5.9540087e-01
  4.5285922e-02
  1.1668583e-02
  4.9590347e-03
 -8.5446313e-03
 -9.1962153e-03
 -5.1899131e-02
 -7.1145862e-02
  5.7376530e-03
 -9.6708968e-02
  1.6144056e-02
  1.7608402e-02
 -1.2060363e-02
  2.8652413e-02
  4.4659129e-03
 -2.1227838e-02
  1.5427753e-02
  4.4990676e-03
 -5.7950290e-03
  1.4297007e+00
 -4.0516093e-02
  1.1883536e-02
 -1.1639150e-02
  7.3852062e-02
  9.5473807e-03
 -5.1937520e-04
 -2.8975382e-02
  2.0468570e-03
 -3.5285179e-03
 -3.9005790e-02
 -6.3094050e-02
  2.6189578e-03
 -9.3152858e-03
 -1.9653684e-02
  1.5252808e-01
 -1.3552509e-01
 -1.6766977e-01
 -3.6551312e-02
  1.1303524e-02
  2.2213677e-02
  8.8844504e-03
 -1.1622385e-02
 -1.1423936e-02
  3.3308424e-02
  6.5613268e-03
 -1.0326823e-02
 -1.4291123e+00
  1.4038589e-02
  2.9988664e-01
  5.7980053e-02
 -3.0334315e+00
 -2.2168091e-02
  2.8800502e-02
 -4.5935690e-02
  1.6338071e-03
 -2.9049072e-02
 -5.6938273e-03
 -1.2218933e-02
 -5.7200748e-03
 -3.4524731e-02
  2.7524349e-03
 -5.3304079e-04
  2.5705206e-03
 -6.3712060e-02
 -1.8076884e-02
  8.6864550e-03
 -1.9686805e-02
  1.7647859e-02
 -7.3215915e-03
 -2.9955169e-02
 -8.0043063e-02
  1.2266874e-02
 -1.3842822e-02
  3.6113638e-02
 -1.0743815e-02
  2.3972616e-03
  1.9378537e-02
 -2.8652132e-02
 -7.0518017e-02
 -2.2021737e-03
  2.8093182e-02
 -1.1576071e-02
  3.4367837e-02
 -9.6494555e-03
  1.8615287e-02
 -6.9260895e-02
 -5.3764079e-03
  2.3236651e-02
 -1.6422173e-02
 -8.2504740e-03
  1.3154317e-02
  1.0949685e-02
  2.0532515e-02
 -1.1481266e-02
 -1.9444618e-04
  1.5018323e-02
  9.8197553e-03
 -3.6058351e-02
 -5.5089876e-02
  1.0265441e-02
  5.8175405e-03
  3.8784958e-02
  4.3879800e-02
 -3.1040024e-02
 -5.1984049e-02
  6.8275013e-04
 -1.0728232e-02
  3.5618606e-03
  8.7153921e-03
  1.7894937e-02
  3.9944700e-03
 -2.3765001e-03
 -4.0212408e-02
 -1.3292818e-02
 -1.9110227e-04
  2.8678013e-02
  1.5745994e-02
 -6.5828990e-03
  2.3000002e-02
 -5.9795100e-03
 -1.8894956e-02
 -4.8981149e-02
 -2.2355352e-02
 -8.3737075e-02
 -2.9350400e-03
 -3.1955126e-03
 -2.3491612e-02
 -5.9312382e-03
  8.4313275e-03
 -1.3559028e-03
 -8.2895719e-02
 -8.1272706e-02
  1.0391781e-02
 -1.0121381e-01
 -3.1507559e-02
  1.2427629e-02
  1.4224404e-02
  2.6993081e-04
 -1.8667497e-02
 -7.4333620e-01
  1.1314544e-02
  1.6218398e-02
  2.7288264e-04
  1.3157651e-02
  9.5877033e-03
  7.0982136e-02
 -2.9997315e-02
  1.1429956e-02
  6.6769733e-03
 -6.7934720e-03
  8.0226539e-03
  1.3801718e-02
  3.6511126e-01
  6.7818898e-04
  1.3092139e+00
  6.0223620e-02
 -2.2722468e+00
  4.7328874e-01
 -6.8958032e-01
 -1.9934383e-01
  1.9431824e-02
 -2.3254502e+00
 -4.8912153e-01
 -8.1855595e-01
 -5.1845682e-01
  6.1672516e-02
 -1.0791535e+00
  2.7128607e-01
 -3.4051225e-01
  9.7671813e-01
 -8.0047560e-01
 -7.0504880e-01
  2.7642801e-02
 -3.3981964e-01
  9.9628650e-02
 -1.2018965e+00
  4.8819500e-01
 -1.2251329e+00
 -2.9292298e-02
  3.5862428e-01
 -3.7434483e-01
 -1.4112037e-01
 -7.5064719e-01
 -6.3534844e-01
 -4.6865222e-01
  9.1147795e-02
 -1.1758807e+00
  2.6613888e-01
  1.3901114e-02
 -3.6911449e-01
  4.6042118e-02
 -3.4549156e-01
 -5.0397235e-01
 -1.2862629e-01
  3.9932784e-02
 -9.3277520e-01
  1.5953264e-01
  1.9925800e-03
 -2.7144998e-01
  3.5021707e-02
 -2.6050467e-02
 -6.3789241e-02
  3.4174541e-01
  2.4740915e+00
 -2.7168459e-01
 -4.1783085e-01
  2.8011438e-03
  4.2882189e-03
 -2.9271027e-02
 -1.1274260e-02
 -2.3605281e-01
  1.4724056e+00
 -2.3043783e-02
  2.4004823e-01
  1.6072455e-01
 -1.9290137e+00
 -1.4617525e+00
  2.4612062e-03
  5.1723778e-02
  6.8735615e-03
 -7.8665212e-02
  1.1624070e-03
  3.2655853e-01
  5.7665563e-01
 -3.1407338e-03
 -1.5741245e-01
  3.1351831e-03
 -2.6684156e-01
 -4.8299450e-01
 -5.4210037e-02
  3.0462599e-01
  1.0847825e-01
 -5.2353549e-01
  3.0919284e-02
 -2.4153495e-01
 -2.3248990e-03
 -1.1099566e-02
  1.9205941e-02
  9.9143334e-02
  6.2684231e-02
  6.6691674e-02
 -8.1489891e-02
 -6.9587909e-02
 -1.7174279e-02
 -2.3792614e-03
 -2.1371691e-01
 -7.6223508e-02
 -1.9545922e-01
 -2.8403329e-02
 -4.6593331e-02
  5.1843590e-01
  9.6927151e-02
  5.8838893e-02
 -2.8435737e-03
  7.7091195e-03
  2.0506617e-02
  2.0911992e-01
  2.2189200e-02
 -4.1937090e-02
 -7.3690806e-03
 -5.8864807e-03
  1.9006720e-02
  8.1916249e-01
 -2.3777958e-02
  1.0351907e-02
  1.7493069e-02
  5.7450619e-02
  1.7419776e-02
  8.7866345e-03
 -1.7579824e-02
 -4.6229396e-02
  3.9589587e-03
  2.7802674e-02
  3.9100614e-03
  3.2541499e-02
  3.1850711e-02
  2.4107778e-02
 -1.9833050e-04
  1.8994875e-02
 -7.7294204e-03
  1.5970061e-02
  3.7595417e-02
 -2.1444273e-04
  1.2668245e-02
 -3.7410951e-03
  5.7324893e-03
  2.6938440e-02
 -3.5267819e-02
 -4.8794951e-02
  1.6783156e-02
  6.0002055e-02
 -2.2134941e-02
 -8.9446940e-03
 -5.5705057e-03
  3.8984120e-03
  1.4289085e-02
  6.8244606e-02
  1.4192693e-02
 -9.9493971e-04
  2.5006220e-02
  3.8748607e-02
  1.6498379e-02
  6.0351891e-03
 -9.3898661e-03
 -5.6937680e-02
  1.2516925e-02
  1.4656893e-02
 -1.6055501e-03
 -5.2996393e-04
  1.6295262e-02
 -5.7566658e-02
 -2.6239134e-02
 -1.6778044e-02
 -3.4636877e-02
  3.1440858e-02
  1.7909257e-02
 -7.3034418e-01
 -8.3153121e-02
  2.3968993e-02
  3.3920211e-01
 -1.6677417e-01
  1.7398259e-02
  3.4856062e-02
  1.5412561e+00
 -1.5784609e-01
 -2.1602166e-01
 -1.0450444e-01
  2.9023576e-01
  4.0448827e-01
  1.2519516e-01
  5.5077814e-02
  7.8987855e-01
 -4.9304431e-03
 -1.0775445e-01
 -1.7431136e-02
 -5.7127047e-01
  2.7268240e-01
  1.5805310e-02
  3.9561608e-01
  1.0961145e-01
 -2.6631791e-02
 -4.3460871e-03
 -2.6692029e-02
  7.6082442e-03
 -5.7489090e-02
  8.9982012e-03
  9.7372442e-02
  2.4828581e-02
  2.1599144e-02
 -9.1024555e-02
  5.4384060e-03
  6.5221097e-03
  2.4300558e-02
  2.9381556e-02
 -1.6389897e-02
  6.3473284e-02
 -1.9912405e-03
 -3.0229056e-01
 -1.8143582e-01
  2.0998953e-02
 -6.0327139e-02
  1.7211093e-02
  4.8434101e-02
 -1.7277682e-02
  2.8672704e-01
 -1.2644388e-02
 -5.5463951e-02
 -2.4811956e-01
 -8.8925008e-03
  2.6912771e-02
 -1.4096376e+00
 -1.9219555e+00
  1.7654613e+00
  3.1601918e+00
 -2.1096478e+00
 -8.6129713e-01
  1.9668801e+00
 -1.5852195e+00
 -8.2461870e-01
  1.4265586e+00
 -2.2413101e+00
  1.0180408e+00
 -1.5813042e+00
  2.5429432e+00
 -1.3232657e+00
  4.3377212e-01
 -8.5063207e-01
 -3.7738192e-01
 -9.5512265e-01
 -8.8357991e-01
  1.0814246e+00
 -8.9271080e-01
  6.3748464e-02
  2.0932771e-01
  1.1706365e+00
 -1.5418565e+00
  1.4425228e+00
  6.8353671e-01
 -1.8375269e+00
 -9.0038526e-01
  2.3791761e+00
  1.5120139e+00
  1.7599493e+00
 -2.6461639e+00
  1.0003766e+00
 -1.7652898e+00
 -1.1972257e+00
  1.3017137e+00
 -2.2629793e+00
  4.6078868e-02
 -1.9250238e+00
  1.7985346e+00
 -1.5013820e+00
 -1.0260055e+00
  1.8665688e+00
 -1.7971687e+00
  3.2754111e+00
  2.0600073e+00
  1.4944832e+00
  1.3750285e+00
  2.2925782e+00
 -2.2941661e+00
 -1.2551882e+00
 -1.3242481e+00
  2.5914605e+00
 -1.2045071e+00
 -2.1095886e+00
  2.3639143e+00
  3.1214032e-01
  1.0947592e-01
 -1.4223723e+00
  2.0509684e+00
  3.9886433e-01
 -1.8330768e-01
  5.4936659e-01
  2.7003375e-01
 -2.6694649e-01
  2.3009624e+00
  2.2574244e+00
  1.2371033e+00
  2.1950548e+00
 -1.4335953e+00
 -1.7492974e+00
  1.6813937e+00
 -1.4570807e-01
  2.5531263e+00
 -1.7105054e+00
 -1.2136866e+00
  1.2423003e+00
  9.4504803e-01
 -6.7938060e-01
 -5.5865961e-01
 -1.6677979e-01
  2.1749365e+00
 -1.2833960e+00
 -2.2920516e+00
  8.9680320e-01
 -1.2271913e+00
  3.9731514e+00
  2.9405886e-01
 -2.4183877e+00
  1.1635818e-01
 -9.7708380e-01
  2.7969649e+00
 -3.1167251e-01
  5.4464698e-01
 -7.3376507e-02
 -2.9047027e-01
  7.4085489e-02
 -4.3163741e-01
  2.5654513e-01
  4.1440013e-01
 -2.8651899e-01
  6.1767721e-01
  1.4929122e-01
 -3.3762056e-01
  2.1408579e+00
  3.4473726e-01
 -1.3506582e+00
 -2.2651754e-01
  2.3345315e+00
  3.0103716e-01
  7.5428414e-01
 -3.3871992e+00
  2.4225585e-01
 -6.9956660e-01
  6.2386829e-01
  1.8310121e-01
 -3.2078633e+00
  3.1739494e-03
 -6.6898477e-01
  5.6454384e-01
 -2.6899108e-01
  7.3060501e-01
  3.1638005e-01
 -1.8320529e+00
 -3.5101128e-01
  1.5066432e+00
 -9.2393309e-01
  2.2839707e-01
  1.6222582e+00
 -2.0271063e+00
 -9.2960274e-01
 -1.7319658e-01
 -8.4203362e-02
 -1.4207529e-01
 -1.6361284e+00
  1.2691810e+00
  1.3121574e+00
  2.2200532e-01
 -4.6190619e-01
  8.0581146e-01
 -1.7936981e-01
  1.2038131e-01
  1.3389070e+00
  2.7459097e-01
 -6.7257982e-01
  2.7934318e+00
  1.4120817e+00
  2.0632324e+00
  5.3905243e-01
 -2.7194676e+00
 -3.6501348e+00
 -1.4769101e+00
 -1.9166183e-01
  2.5052729e+00
 -2.6493466e+00
 -2.4358218e+00
  1.4169429e-01
 -1.3718791e+00
 -5.9595753e-02
 -3.4070781e-01
 -2.3140864e-01
  2.8588239e-02
  2.3059517e-01
  3.4676811e-01
  2.2331005e-02
  2.2493643e-01
  1.8822474e+00
 -3.0778952e-02
 -3.7536394e-02
  2.8572959e-01
 -4.3019313e-02
 -2.9595906e-01
 -2.5927955e-01
 -9.9951038e-03
  1.9236048e-01
 -5.1008407e-02
  8.7473011e-01
 -6.9133365e-01
 -4.2425939e-01
  5.1523927e-03
 -4.4273891e-02
 -1.3812234e-01
 -3.7782133e-01
 -2.0072730e-02
  4.6474025e-01
  6.0627747e-02
 -2.6642713e-01
  9.5748419e-01
  1.0408729e-01
 -8.0363011e-01
 -2.0986086e-01
  3.7109721e-02
  2.7658686e-01
  3.2230967e-04
  2.7342319e-02
 -7.3660195e-02
 -2.4512394e-01
  5.2086771e-01
 -2.7337817e-02
 -1.3673148e-01
 -2.4029368e-01
  1.7314827e+00
  1.4405194e-01
 -1.1175204e-02
  1.1161205e-01
 -2.0116031e-01
  3.9808061e-02
 -1.2815846e-03
  2.1508690e-03
  8.0165163e-02
 -1.7260663e-02
  8.8606521e-02
  5.4666802e-02
  1.4793034e-01
 -2.0273160e-02
 -4.7633249e-02
 -8.5949333e-04
 -1.0096207e-01
  4.0245965e-02
 -1.9017454e-02
  1.9283946e-01
  2.5858112e-02
  4.9003296e-02
 -5.9032151e-03
  3.4177219e-03
 -6.0364541e-02
  5.7270364e-03
 -4.5560338e-02
 -9.3769304e-02
 -1.6587064e-02
  5.6307805e-03
 -3.7210599e-02
  1.9629486e-02
 -4.2907011e-02
  3.9273646e-02
  3.1561069e-02
  1.0410638e-02
 -3.1831315e-01
 -1.5950171e-02
  5.2608899e-03
 -8.0847792e-02
  1.9586079e-03
 -2.1767838e-01
 -3.9679330e-02
  2.3182720e-02
 -2.9088972e-02
 -4.6511736e-02
 -7.2559625e-02
 -5.2810167e-03
 -1.1013816e-01
 -4.6928346e-02
 -6.4252965e-02
  1.1316887e+00
  2.7228030e-03
  4.5236178e-02
 -1.1627244e-01
  2.5480131e-02
  6.5903445e-03
  3.2453567e-02
 -9.2320340e-03
  2.1936025e-03
  3.0874120e-02
  9.5519312e-03
 -3.7463401e-03
  8.7704845e-03
  1.4494312e-02
 -1.3179325e-02
 -1.8582512e-02
  1.2952820e-02
 -9.5617538e-03
 -9.6901972e-03
  6.6196471e-02
  4.9525585e-02
  4.8157111e-02
 -1.6012862e-02
  2.3970727e-02
  4.4102095e-02
 -3.0334077e-03
 -7.2499021e-04
 -1.3350602e-02
 -5.5590332e-02
  5.0062399e-02
 -2.5055651e-04
  1.9482587e-03
  2.7868915e-02
 -8.0245629e-02
 -4.7168098e-02
  3.8695160e-02
  9.2206504e-03
 -3.3917546e-02
 -2.0343062e-02
 -4.1225996e-02
 -9.3521029e-03
  2.5979014e-02
  5.6600035e-03
  1.1562632e-02
 -8.2439110e-03
 -1.8288227e-02
 -1.6120980e-02
  9.6936405e-02
 -3.8753934e-02
  2.1193430e-02
 -5.3804670e-03
  1.1795241e-02
 -2.5807504e-02
  3.4809455e-01
  4.6836324e-03
  8.1852507e-03
  3.9830361e-02
 -1.8955294e-02
 -9.4537130e-03
  3.0186182e-02
  5.5190951e-02
  5.7957331e-03
 -1.9759210e-03
 -5.4105099e-02
 -1.6412389e-02
  1.9072004e-02
 -8.6785620e-04
 -1.6787713e-02
  2.5922340e-01
 -9.3447065e-01
  1.0779053e-01
  8.6066112e-02
 -1.5856121e-01
 -1.8371640e-02
 -2.2013429e-01
  4.2136487e-02
  6.9527793e-01
  6.7819142e-01
 -1.6854553e-01
  2.0722231e-01
 -7.5228763e-01
  4.3512455e-01
 -2.5298569e-01
  1.2589714e-02
  8.2721436e-01
 -6.5187663e-01
 -3.8094457e-02
 -1.3859715e+00
  7.4990682e-02
 -7.6744564e-02
 -3.8452980e-01
 -4.0584262e-03
  7.6396473e-02
  5.8115852e-01
 -8.0385828e-01
 -1.1582776e+00
 -9.7310999e-03
 -3.6441317e-01
  8.9769781e-02
 -5.3694874e-01
  3.4657169e-02
 -1.4582272e+00
  1.4504078e-01
 -2.1758113e-02
 -6.6509128e-02
 -1.6463062e-01
  4.6925220e-01
 -1.1701702e+00
  9.4656125e-03
  6.3106701e-02
 -7.7167743e-01
 -1.5916394e+00
  1.3627169e-01
 -5.2563113e-01
  2.5076240e-01
  9.2686035e-02
  2.9411423e-01
 -1.0730980e-02
  2.2547962e-03
  1.3382228e-02
 -2.0936150e-03
 -4.2128029e-01
 -1.2991168e-01
 -2.1947961e-01
 -2.4348316e+00
 -1.1018821e+00
 -5.3329670e-01
  2.3750359e-01
 -3.0111304e-01
  2.1751918e-01
  1.4260304e-01
  6.2275887e-01
  5.3860748e-01
  1.5285896e+00
  1.5323396e+00
  1.6151490e-03
 -1.7163606e-02
 -1.1993341e+00
  1.7421019e+00
  7.1729887e-01
 -3.6512677e-02
 -3.1750936e-02
 -9.9400258e-01
  2.2493551e-02
  1.1328062e+00
 -3.6537457e-02
 -8.5401273e-01
  9.4471890e-01
 -9.6070802e-01
  2.7105170e-03
 -6.7606896e-02
  3.7378752e-01
 -8.8009816e-03
 -7.9949540e-01
 -6.3279875e-02
  9.3804665e-02
 -2.3958907e+00
  1.4856189e+00
 -4.3063679e-01
  7.8318286e-01
 -7.7874088e-01
  4.3606874e-01
  1.1350372e-01
 -1.2415403e-02
 -2.7071305e-02
  6.3426048e-01
 -5.1530242e-01
  2.4584407e-01
 -7.4235145e-03
 -2.8191974e+00
  3.3158664e-02
 -8.7390512e-02
  3.8742633e-03
  4.3804303e-02
  4.8913717e-01
  2.5287530e-01
  1.0373605e-02
  1.3166271e+00
 -1.2019320e+00
 -1.0258363e+00
 -1.0081093e+00
 -3.3978024e-01
  5.2571774e-01
 -2.0455752e-01
 -1.8597046e+00
  9.2926252e-01
  9.6358550e-01
  6.4303917e-01
 -3.2941310e-03
 -3.7503907e-01
  2.8523176e-03
  5.4818355e-02
  4.8909899e-02
  6.5755278e-01
 -1.5196285e-01
 -7.1215761e-01
 -9.6258837e-01
 -2.3583043e-01
  4.9151465e-01
 -1.9015105e-02
 -4.5261607e-02
 -3.6447671e-01
 -1.4713340e-01
  1.2641813e+00
  6.8975413e-01
  7.3499691e-01
  7.2212636e-01
 -4.6432700e-02
  4.9562228e-01
  2.5701704e-03
 -6.3190676e-02
  1.4256452e+00
  1.9843014e-02
  1.3980636e-01
  6.5585256e-02
 -8.5594477e-03
  7.8896886e-01
  8.8099852e-02
  1.3970850e-02
  2.6269941e+00
 -5.8569705e-01
 -7.2863810e-02
  1.8334782e-01
  9.2486938e-04
  1.6029194e-01
  2.3770427e-02
  3.5928497e-01
 -4.5863613e-02
  1.2516944e-03
 -1.6129208e+00
 -9.5666909e-01
  1.5518320e-01
 -5.3015285e+00
  3.1368232e+00
 -2.5682852e+00
  8.4575039e-01
 -4.3840780e+00
  3.5740016e+00
  5.2943774e-02
 -3.1464764e-01
  2.9866815e-01
 -2.2946274e+00
  2.6772745e-02
  1.4297526e+00
  2.6049521e-03
  1.2576313e+00
 -2.9903200e+00
  8.9604425e-01
  9.9307829e-01
 -9.1369236e-01
 -2.4056380e+00
  1.1650296e+00
  7.1769208e-01
 -7.2681308e-01
  2.0722063e+00
  3.5269558e-01
  2.8605130e+00
  1.3094697e+00
  4.9114939e-02
  3.1885642e-01
 -2.4853716e+00
  5.5487221e-01
 -3.4933135e-01
  5.0699794e-01
 -8.3580458e-01
  2.0479357e+00
  9.5258206e-01
 -2.0180862e-02
  2.4519089e-01
 -1.6194776e-02
  3.7622514e-01
  1.7742740e-01
  1.8138324e-01
 -1.4556076e-01
 -4.0190327e-01
  3.3612549e-03
  5.5459905e-02
 -5.9045374e-01
  1.0267336e+00
 -1.8632391e-01
 -1.4423570e-02
  2.5700826e-02
 -1.8337138e+00
  1.5048786e-01
  1.8142606e-01
  6.6630566e-01
 -4.1067647e-03
  1.1451893e-01
  3.3030137e-01
  8.3750254e-03
  1.7011474e-01
 -5.5733776e-01
 -5.4169542e-01
 -6.0372609e-03
 -1.8410506e+00
 -3.1680536e+00
 -1.3810428e+00
 -6.7804486e-02
 -5.0316434e-03
  3.7587517e-01
 -1.4241188e+00
 -9.5699704e-01
  2.8389162e-01
 -2.9847163e-01
 -7.8935504e-01
 -7.6263225e-01
 -9.8296678e-01
  4.1323636e-02
  1.7681506e+00
 -1.1666542e-01
  4.1516066e-01
  5.9600610e-01
  2.4136102e-01
 -3.5210502e-01
  5.9394401e-01
  7.2050607e-01
  8.9421477e-03
  7.1908077e-03
  1.7491208e+00
  2.3489501e-01
 -2.4254444e-01
 -1.2826291e-01
 -1.8027129e-02
  5.3431976e-01
  3.9252164e-03
  4.9959791e-01
  3.2521822e-02
 -5.2692896e-01
  5.0308818e-01
  6.4825686e-04
 -1.3302673e-03
 -7.6408529e-01
  9.2251807e-02
 -3.8651500e-02
 -9.7821904e-03
 -4.2350177e-04
  2.3415017e-01
  2.0776905e-02
  2.1127995e-02
 -7.6905154e-03
 -2.4395455e-03
 -2.6469311e-02
 -5.6041732e-02
  2.8075565e-02
  8.4953923e-03
 -4.6091725e-04
  1.8954376e-02
 -2.2848971e-02
  1.3627848e-02
 -3.0061812e-05
 -7.6029310e-03
 -1.1755794e-02
 -3.0785227e-02
  1.9533216e-04
  1.0733565e-03
  7.1561657e-02
  4.9208235e-02
  2.4261227e-02
  1.3636742e-02
 -9.0612024e-03
  1.7970396e-02
 -6.8581879e-02
 -1.5552375e-02
  1.2374392e-03
 -5.2537508e-02
  6.6294018e-03
  3.2467563e-02
  1.8553946e-02
 -2.1957741e-03
 -2.3766091e-02
  2.5657812e-02
  5.6432705e-02
 -1.5801150e-02
 -1.1139745e-03
 -2.2609819e-02
 -5.3851731e-02
  9.9473320e-02
 -3.1072535e-02
 -1.3878793e-02
  2.8298702e-02
  1.1233578e-02
  2.1216743e-02
  4.3798663e-02
  3.8963288e-02
 -1.7917074e-03
  4.6163209e-02
  2.0921059e-02
  2.6928732e-02
 -1.2288137e-02
  2.6402220e-02
 -4.8443586e-02
  2.0967748e-02
  4.1017905e-03
  1.5754651e-03
  2.8447242e-02
 -3.3515193e-02
  4.4025816e-02
 -3.8584918e-02
 -3.5857330e-03
  3.9133206e-02
  7.3966026e-02
  4.9896207e-02
 -8.0719916e-03
 -1.1665296e-02
  6.1023487e-03
 -1.5062185e-02
  3.2068871e-02
 -3.2567181e-02
  2.1967909e-03
  2.5556892e-02
  1.2631622e-02
 -1.8007357e-02
 -2.1242157e-03
  3.1614862e-02
 -1.2604657e-03
 -3.1202879e-02
 -9.6845832e-03
 -2.1213571e-02
 -7.9588816e-03
  7.6790182e-03
 -5.3443518e-02
 -1.0654647e-03
 -3.1518273e-02
  1.6090715e-02
  1.5559120e-02
 -1.0256602e-01
 -3.2131189e-01
  1.3954701e-02
 -2.3067286e-02
 -2.2720775e-02
 -1.1787856e-02
 -4.1204495e-03
 -3.1581659e-02
  2.7989889e-02
 -6.7331837e-03
  9.3055861e-03
 -9.6202170e-04
 -1.9114276e-02
 -5.7043120e-02
  8.8284295e-03
  3.0388251e-02
  1.8817320e-02
  1.1837318e-02
 -4.9348446e-03
  2.2842230e-03
 -3.0144110e-02
  5.0328565e-01
  9.1004527e-01
 -1.5563048e-02
 -1.8723151e-02
 -5.7779722e-02
 -7.7433097e-01
  6.5763064e-02
 -7.6744956e-01
  1.0600447e-02
 -1.1380489e-02
 -9.1433898e-02
 -4.8497710e-02
  1.2196296e-02
  4.5948493e-01
 -3.8796626e-02
  6.4727060e-02
  1.3206270e-02
 -6.5449148e-01
 -1.8332659e-01
  1.7491603e-02
 -3.3673032e-03
 -2.6043860e-02
  1.2511814e-01
 -1.2121525e-01
  3.3005975e-02
 -3.4667019e-02
  5.8759671e-01
 -1.3901486e-01
 -1.3525801e-02
 -1.7325346e-01
  1.0315672e+00
 -8.1508689e-02
  3.7633393e-02
  1.8802521e-01
  8.9607286e-01
 -1.6995445e-01
 -5.0830416e-02
  5.8752904e-03
 -1.8915883e-01
  2.3003744e-02
  1.6069304e-02
  8.0470361e-02
  3.8405976e-01
 -1.4788340e+00
  9.2495787e-01
 -2.4259289e-01
  8.1976643e-03
  2.7004069e-01
  7.4525140e-03
  7.4126986e-03
  8.9171762e-03
 -2.8199209e-02
  4.5809150e-01
 -1.7095990e-02
 -1.5390865e+00
 -7.1240824e-01
 -9.7564811e-01
  1.1992135e+00
 -9.0004158e-01
  7.0663339e-01
  3.5581422e-01
  1.7158809e-01
 -1.9782906e+00
 -3.7493080e-02
 -7.8426063e-01
 -8.9155400e-01
 -2.0832927e+00
 -2.5191748e-01
 -6.3170505e-01
  4.4521257e-02
 -1.9288070e-01
  3.7574824e-02
  1.8860953e-02
  6.4703393e-01
  1.4211364e+00
  1.8166870e+00
  8.5817468e-01
  6.6642766e-03
  7.5491806e-03
 -7.4953437e-01
  6.0588127e-01
  2.8282711e-01
 -1.0030286e-01
 -4.8526213e-01
  3.3240885e-02
  6.0666072e-01
 -4.6589166e-02
  5.3093199e-02
  5.6101108e-01
 -2.9968714e-02
  8.0516887e-01
  3.8016459e-01
 -1.5347573e+00
  2.8613822e-03
 -2.3061508e-02
 -2.8498787e-01
  6.0939574e-01
  4.5272198e-02
  3.0593257e-02
 -3.5611418e-01
 -7.3249109e-02
 -3.1937885e-01
  1.1090498e+00
 -7.3375219e-01
 -1.8444447e-02
 -1.0889871e-02
  3.6102065e-01
  2.9839894e-01
 -2.0158643e-01
 -1.2422953e+00
 -1.5891740e+00
 -1.5205580e+00
 -3.3538830e-01
 -3.6201876e-01
 -1.2035293e-01
 -4.4359890e-01
  1.0185503e+00
  3.0028051e-01
 -1.5210105e-01
 -6.9866645e-01
  2.5104331e-02
  3.4574211e-01
  1.4188769e+00
 -5.6064892e-01
  9.8367622e-03
 -1.0609621e+00
  5.3623885e-01
  5.7681189e-03
 -9.9960960e-02
 -7.7719539e-02
 -3.4388238e-01
  9.9522436e-01
 -1.5807420e-01
  3.6360130e-01
 -5.4872245e-02
  9.5027886e-02
  4.1700143e-01
 -2.7671495e-01
  1.9572299e-02
 -1.9206713e-01
  1.0074925e+00
  4.0509250e-02
 -1.9912177e-01
  2.6185191e-01
 -7.2797731e-04
 -8.8108592e-03
 -8.1056899e-01
  6.9421023e-02
  3.2673588e-01
  9.2436677e-01
 -1.4993072e-01
  3.7199432e-01
  2.8361285e-01
  9.8746675e-01
 -9.1469526e-02
  1.0177201e+00
 -9.4587040e-01
  1.9981869e+00
  4.2511292e-02
 -8.4522562e-03
 -1.9663180e+00
  7.1664685e-01
  1.2770379e-02
 -3.1599135e-03
  2.9646242e-03
  4.1545928e-02
  7.6357774e-03
  1.1495351e-02
  1.9635111e-02
 -7.4026786e-02
  5.9886687e-02
  1.2574840e-02
  9.8185651e-03
  6.8428088e-04
 -1.2592294e-03
  1.8882750e-02
  7.6228201e-02
  1.8523684e-02
 -9.8032989e-03
 -1.1532020e-03
 -5.6780912e-02
  7.3231529e-03
 -8.0549382e-02
 -1.2220489e-02
 -9.4370227e-03
  1.5534902e-03
  1.3864044e-02
  5.1063569e-03
 -1.1699747e-02
 -3.1854898e-02
  1.0411892e-02
 -9.9316090e-03
  4.3332539e-03
  2.7170936e-02
  1.5207020e-02
 -7.7340531e-04
  2.2380911e-02
 -5.2509356e-02
  1.3282513e-02
 -3.8355555e-02
  9.9196546e-03
 -1.5867064e-02
 -1.7517937e-02
 -6.5867207e-03
  1.8779347e-02
 -2.0675862e-02
  2.3430334e-03
 -9.4108311e-03
  3.4482167e-03
  3.2283883e-03
  1.1076972e-02
  7.4181370e-03
 -2.4108851e-02
  1.7727496e-02
 -8.3373506e-03
  7.4728783e-03
  1.9288636e+00
 -5.0439548e+00
 -5.3182669e+00
 -1.5094533e+00
 -5.9374270e+00
  5.3644198e-01
 -7.4199575e-01
  4.4633765e+00
 -1.7595605e+00
 -8.7330955e-01
  1.9435994e-01
 -1.3053905e+00
  7.2875605e-03
  1.4114503e+00
 -1.6131112e-01
  2.1227634e+00
  4.2483190e-01
  8.9534688e-01
  1.0279763e-02
  1.7569088e+00
 -6.6727247e+00
  2.3004460e+00
  1.5804346e+00
 -2.2294777e-02
  2.5097086e+00
  2.7704328e-01
  4.3106766e+00
 -9.1257602e-01
  1.2288015e+00
 -2.1400332e+00
  4.7945797e-02
  1.7388288e+00
 -8.6848676e-02
  6.5944570e-01
  7.8934766e-02
  1.4888982e+00
  3.2237986e-01
  1.7759557e-01
 -9.4756198e-01
 -5.3594917e-01
  2.7857950e-01
  5.8148849e-01
  5.2277243e-01
 -3.3576083e-01
  6.5566581e-01
  1.6731944e+00
  1.2537529e+00
 -2.8845817e-01
 -3.4464085e+00
 -2.3228645e-01
  1.2755756e-02
  7.4615530e-03
 -2.7497167e-02
 -2.7668016e+00
  3.0040547e-01
  4.6034440e-01
 -3.2991245e-02
  3.5347075e-03
  6.6946843e-03
 -1.5975647e-01
 -2.2613518e-03
 -4.9643718e-02
  2.8665720e-03
  2.2000743e-02
  1.9663259e-02
  4.8819534e-03
 -7.4312789e-04
 -4.4627930e-03
 -2.5873596e-03
  1.1954754e-02
 -2.0342480e-02
 -1.1126356e-02
  2.1945972e-02
  2.2557274e-02
 -6.6379807e-03
  7.7377688e-03
 -2.4904445e-02
 -3.0074457e-02
 -2.5676573e-03
 -1.8069033e-01
 -2.0253809e-02
  3.3618018e-02
 -9.9465698e-03
 -2.2813471e-01
 -2.5539570e-02
  1.6893677e-02
 -2.4504427e-02
 -1.4712930e-01
 -4.9080871e-02
 -4.5303423e-02
 -1.2778701e-02
 -5.4144420e-02
  1.0685917e-01
 -2.1136152e-02
 -2.8447386e-02
 -5.6023691e-03
  2.6850237e-02
 -1.2296081e-01
 -2.0007849e-02
  7.8573572e-03
  1.7650671e-02
  1.3546270e-02
  2.7181134e-03
 -6.8451022e-04
  7.5303651e-03
  1.1343174e-02
 -5.6400679e-02
 -3.7663314e-02
 -4.1841441e-01
  2.3293686e+00
 -8.8012505e-01
  6.6689289e-01
  4.2684135e-01
 -9.0691227e-01
 -1.9621866e+00
  1.7720884e+00
 -2.7547041e-01
  8.8672787e-01
 -1.2288193e-01
  3.5841696e-02
  5.6411654e-01
  1.4909722e+00
 -3.8534436e-02
 -8.4175235e-01
 -3.0977814e-02
 -8.5875064e-01
 -3.6627799e-01
 -1.7162074e-01
  4.9310929e-01
 -6.8369105e-02
  4.6494387e-02
 -1.0932768e-01
  7.3623312e-01
  1.3830662e-01
 -8.5260588e-01
  1.0217147e+00
 -1.8679667e-02
 -4.6386707e-01
 -2.0531833e-02
  6.0013980e-01
 -2.9524611e-02
 -3.6519238e-01
  6.6129737e-02
  2.9335916e-01
  6.9250166e-01
 -7.8881674e-02
 -2.2290409e-01
  1.1457518e+00
  1.2385308e-01
 -5.7163942e-01
  4.3288928e-02
 -2.0782959e-01
 -4.8901099e-01
  5.1568139e-02
  1.0158727e-01
  2.6132306e-01
  1.0919224e-02
  5.8063854e-02
 -1.1953220e-02
 -1.4620575e-01
  1.6553634e+00
  3.0619442e-02
  1.6184982e-02
  1.1156270e-01
  2.8206788e-02
 -1.3271223e-02
  2.1084449e-03
 -4.7712191e-04
  1.0349859e-02
 -3.4790669e-02
 -7.2846161e-03
 -2.4486501e-02
  5.1303230e-02
  2.7635664e-02
  1.7812755e-02
  9.8979147e-04
  5.7459963e-03
 -1.6096115e-02
  9.4906520e-04
  4.9881652e-02
 -1.0742150e-02
  2.0903502e-02
 -9.3511520e-03
 -6.2944822e-02
  2.8186908e-03
 -3.1176447e-03
  8.7724242e-04
 -2.9192384e-02
 -1.2109649e-02
 -4.2033594e-02
 -7.1805962e-03
 -4.6071997e-03
 -3.3812992e-02
 -1.2858588e-02
  9.1399783e-03
  7.4589341e-03
 -4.9228463e-02
  4.5596913e-02
  2.3251042e-01
 -2.4176858e-02
 -1.2712996e-02
 -1.6401969e-02
 -6.0148552e-02
  4.5948438e-02
  1.0412756e-02
 -6.1356686e-02
 -2.4515862e-02
 -5.4006483e-02
  2.8469709e-03
  1.8323090e-02
  7.8695891e-03
 -3.8035852e-03
  7.1410745e-02
 -9.8880855e-03
  2.4427153e-02
 -3.8378953e-03
 -1.1480317e-02
 -1.1846006e-02
  3.2273117e-02
  1.6849279e-02
 -4.9950980e-02
  5.0282042e-02
 -4.3864727e-02
  1.9014388e-02
  6.1137203e-02
 -1.7506627e-02
 -1.5254336e-02
  1.2696622e-02
 -1.4746020e-02
  1.3954215e-02
 -6.0073426e-03
  8.6922618e-03
  2.2545975e-02
  1.9316938e-02
  6.4796824e-03
  5.9309881e-04
 -1.3106955e-02
 -5.9971008e-03
  2.8483994e-02
 -4.0593795e-03
 -9.6989451e-03
 -1.4247566e-02
  2.7401643e-02
  5.6127768e-02
 -2.8058631e-02
  5.6787223e-01
  2.0639796e-02
 -3.1767823e-03
  1.0035194e-02
  1.3379743e-02
 -2.1535205e-04
  3.0795295e-02
 -1.9277286e-02
  2.9802920e-02
  2.5657009e-02
 -2.6702634e-03
  1.7153185e-02
 -7.7789174e-03
 -6.6338773e-03
 -1.3109027e-02
  3.0119356e-02
  4.2767316e-02
  4.7955755e-03
  2.1016853e-02
 -3.9615453e-04
  3.1699583e-02
 -3.4398850e-02
  2.4757679e-03
 -2.3147911e-02
 -4.3244936e-02
 -3.6303916e-03
 -1.5189968e-02
 -4.8426494e-02
  7.6220579e-02
 -1.8887676e-01
 -4.5326848e-02
  2.5161030e-02
  9.9552751e-02
 -9.8920278e-03
 -4.8414669e-03
 -4.5338040e-03
 -4.3315470e-02
 -1.0509240e-02
 -1.3595403e-03
  3.0480538e-02
  1.0910277e-02
 -8.5265189e-03
 -2.1262206e-02
 -2.9067436e-02
  2.5555074e-02
  1.3746487e-02
  5.3180549e-02
  2.3244200e-02
 -1.7512772e-02
  3.8734142e-02
  5.4638546e-02
  1.8762534e-02
  2.2144342e-04
  2.5828458e-02
  1.8240409e-01
  2.9543014e-03
  1.7350235e-03
 -3.2813527e-02
  2.7363671e-02
  1.3768139e-01
  1.6997342e-01
  5.0350330e-03
  1.2977529e-02
  5.9866643e-01
 -3.9206930e-03
 -2.3517700e-02
  6.3944042e-02
 -9.5416903e-03
  1.1408046e-02
 -2.0809293e-02
 -2.6123557e-04
  5.9025764e-02
 -4.0551610e-02
 -1.6334912e-02
  4.9705501e-03
 -2.3099881e-02
 -4.2784348e-02
  3.5527147e-02
 -2.7708145e-02
  6.6505149e-02
  1.7427553e-01
 -2.9981315e-01
 -5.0945975e-02
  3.8789999e-04
 -9.2729256e-03
 -1.5992405e-02
  5.0450597e-02
 -9.1956686e-03
  3.1172885e-02
 -2.6593145e-03
 -1.0570076e-02
 -6.7226319e-03
 -3.5935901e-02
 -1.5674539e-02
 -1.9260518e-03
  5.4944251e-03
  5.1955990e-03
 -6.6699721e-03
 -2.3678220e-03
 -1.6578170e-02
  1.5283984e-02
  6.8388288e-03
 -7.0743668e-03
 -4.3865073e-02
 -9.7416891e-03
  2.0919031e-02
  1.2070322e-02
 -1.2083503e-04
 -5.7069804e-03
  2.7144955e-02
 -1.5772525e-03
 -7.1620946e-03
 -1.5004618e-02
  3.1381224e-03
  2.3607599e-02
  5.7427078e-03
 -8.5709952e-02
  9.5802173e-03
 -1.9095507e-02
  1.1133082e-04
  3.7009586e-02
  3.6482163e-02
 -2.8169163e-02
  9.8618185e-03
 -4.3798931e-02
  1.4615799e-03
  2.0296522e-04
  5.6956641e-02
  7.2845541e-02
 -1.9052738e-02
 -1.4906989e-02
 -5.8817472e-02
 -2.9720759e-02
 -3.8879324e-02
 -1.3804677e-01
 -3.8914058e-02
  1.0777455e-02
  1.3348381e-02
  1.1998884e-01
 -3.4033053e-02
  6.7824915e-02
 -4.5681749e-02
  6.0528377e-03
  4.2167935e-03
 -1.6043944e-02
  4.0507130e-02
  1.7023023e-02
 -2.7181562e-02
 -7.3800012e-02
 -9.0145376e-03
 -1.6165031e-02
  1.0614092e-01
 -1.8678572e-02
  4.1404516e-02
 -1.8076152e-02
 -8.5961390e-03
  8.7682702e-02
  1.1631239e-02
 -3.0678755e-03
  5.3191232e-03
 -7.9177050e-03
  6.4301514e-03
  6.5875374e-02
  5.4831170e-03
  2.4771590e-02
 -2.7936702e-03
 -3.2260288e-03
  1.2443732e-02
  7.2659901e-03
 -3.5663317e-03
 -1.6332543e-02
  3.7464350e-02
 -1.0380056e-02
  2.7677754e-02
  2.4663070e-02
 -4.2214319e-02
 -4.6140361e-03
  3.5634283e-02
 -3.3622283e-02
 -1.2227251e-02
 -4.6136636e-02
 -5.7263612e-03
 -9.7317621e-05
  3.7641875e-02
 -1.2052374e-02
 -5.3266626e-02
  5.4361802e-03
  6.0177268e-03
 -6.0629016e-03
 -3.2368663e-03
 -2.6268240e-02
  5.2674770e-02
 -9.2231311e-02
  1.2521319e-02
 -1.3422308e-02
 -5.6359284e-02
 -1.0681268e-02
  7.1500614e-03
 -4.1922696e-02
 -4.0182499e-03
 -1.1891415e-02
  8.1667727e-01
  1.1396727e-03
 -8.3272243e-03
  6.8808156e-03
 -7.9743946e-03
  4.9143765e-02
 -1.4038405e-03
 -3.6094200e-03
 -3.4427206e-04
 -1.9807152e-02
 -1.1882758e-02
  7.7904701e-02
 -3.5589978e-02
  2.0129750e-03
  5.3666443e-02
 -3.1928523e-03
 -3.8776897e-02
  9.3460362e-04
 -1.2965151e-02
  5.4124542e-02
 -5.6990117e-02
 -2.8928204e-02
  1.3458608e-03
 -1.8608155e-02
  2.2379605e-02
  1.8377528e-02
 -2.1929934e-03
 -3.0094076e-02
 -8.4919594e-03
  6.5944996e-03
 -7.6117308e-04
 -3.3247948e-02
  1.8786344e-03
  2.4374343e-02
  8.0052344e-03
 -4.1791011e-02
  2.1304751e-02
 -8.9017339e-03
 -1.5499973e-02
 -4.1205056e-02
 -3.5146207e-01
 -4.9971098e-01
  1.2080617e-02
  3.1838775e-02
 -3.0299065e-01
  7.6615840e-01
 -2.9696885e-02
  1.9209484e+00
 -4.1559047e-01
 -2.2726277e-02
  1.9063123e-01
 -1.3122924e-02
  4.9885377e-02
 -6.4401168e-01
  3.7576818e-01
  2.0023289e-01
  8.5012507e-01
  3.8087103e+00
  8.8833916e-01
  4.5707440e-03
  1.5489324e+00
  8.8389552e-01
 -4.7327788e-03
 -1.1957082e-02
  1.1513053e+00
 -9.5060658e-01
  2.2730474e+00
 -1.9650862e-02
  1.4692473e-02
  6.5031612e-01
  1.9689578e-01
  8.6082536e-01
  1.7034917e-01
  8.6932406e-02
 -2.5861201e-01
 -1.0753449e+00
  9.3536603e-01
  3.0020124e-01
  1.9199152e+00
  4.6389833e-01
  3.1764972e-01
  7.8325346e-02
  5.2251852e-01
 -3.3518860e-01
  3.8237493e-02
 -9.5395166e-01
 -9.0828651e-01
  2.3461449e-01
  1.6920774e-01
 -4.5511510e-02
  3.4490353e-04
  1.2803830e-02
 -9.2751002e-03
  4.7171302e-02
  5.7857912e-02
  1.2081345e-01
  1.5571174e-03
 -3.2418165e-02
 -5.6928582e-03
 -9.2580914e-01
  4.6400144e-03
  2.4939345e-02
 -2.2190476e-02
 -3.9802021e-03
  1.1959700e-02
 -2.4728434e-02
 -1.0076883e-02
 -1.3297650e-02
  1.9545728e-02
 -4.0361088e-02
  2.8779835e-03
 -1.0618288e-02
  2.6441883e-02
 -1.3658253e-03
  1.4624102e-02
  3.0865842e-03
  4.4614725e-02
  3.8805097e-02
  2.3108361e-02
 -2.1534902e-04
 -2.7698873e-02
 -2.6527846e-02
 -7.2573774e-02
 -2.7381646e-02
 -2.2774076e-02
  1.7339280e-02
 -4.7870041e-03
 -3.4809489e-02
 -6.5956928e-02
  3.9124549e-03
  1.7599633e-02
 -3.3034895e-02
 -2.8106656e-02
 -6.1308183e-02
  1.1450947e-02
  3.8348850e-02
  3.8613221e-03
 -5.9444048e-03
  1.1669438e-02
 -1.3800908e-02
  3.9454248e-02
  1.0641025e-02
 -4.0333480e-02
  7.2410288e-03
  2.9620992e-02
 -1.3042253e-01
  7.3320013e-03
 -1.6302152e-02
  4.0066966e-01
 -2.0286243e+00
 -3.0646271e-01
 -1.5824831e+00
 -1.7657238e-01
  1.4964794e-04
 -8.8534343e-01
  2.5696175e+00
  9.6426386e-01
 -7.3455018e-04
 -3.1275585e-01
  1.6466033e+00
 -3.8792405e-01
 -1.0612661e+00
 -1.9224676e-01
 -1.6093443e-01
  1.5822960e-01
 -3.9708672e+00
 -3.0777082e+00
 -2.3230467e+00
  5.1843100e+00
 -1.3335018e-01
 -1.1151370e+00
 -4.1477752e-01
 -2.1609156e+00
 -1.7679109e-01
 -1.5604337e-01
  3.7796447e-01
 -5.6427449e-01
  3.5173258e-01
  1.1679565e+00
 -4.4151112e-01
 -1.8875878e-01
  1.8901823e-01
 -9.6352007e-03
 -1.2593267e+00
 -1.8924145e-01
 -8.5570998e-02
 -9.5734286e-01
 -6.6266078e-01
 -1.6993701e-01
 -2.5983980e-02
 -4.8081762e-01
  2.1219990e+00
  1.8058874e-01
  3.6066398e-02
  6.7493655e-02
 -1.6910969e+00
 -9.5653180e-03
  1.9913100e-02
 -1.0636089e-02
 -1.0609785e-01
 -1.5956005e-02
  1.4872719e+00
 -1.5653677e-02
  9.9680468e-02
 -3.3060417e-02
 -1.9102812e-02
  1.0665037e-02
 -4.7883250e-02
 -1.6635437e-02
 -6.0320303e-02
  4.8676883e-03
 -7.4691046e-04
  1.1625518e-03
  3.3533271e-02
 -5.8790416e-02
 -4.1612145e-02
  6.2861331e-02
 -1.3237840e-02
  1.6374599e-02
  2.7779249e-02
  4.9717077e-03
  3.9521702e-02
  4.3535619e-03
  6.2991932e-02
  2.0268165e-02
  3.1505145e-02
  4.6409373e-03
 -3.4284908e-03
 -3.1396607e-04
 -5.1374231e-03
  2.1578699e-02
 -2.6430288e-01
  1.7535487e-02
 -3.9864123e-02
  5.9701945e-03
 -1.7282836e-02
 -5.0281581e-02
  2.2161014e-03
  9.1959480e-03
 -1.1105321e-02
 -1.7876187e-02
 -1.4465052e-01
 -3.0040257e-03
  2.2738857e-02
 -1.8645511e-03
 -3.5138797e-02
  4.8129637e-02
  1.9172367e-02
 -3.0154333e-02
 -1.1312666e-02
 -9.0227360e-03
 -9.5038347e-02
  8.2566533e-03
  2.6209623e-02
 -1.0715389e-02
  1.2353693e-02
 -7.3913693e-02
 -1.8761453e-01
 -1.0146162e-02
  1.2726909e-01
 -1.9684222e-02
 -1.0212212e-02
  1.2675080e-02
  4.8065893e-02
 -7.9212328e-03
 -7.3198363e-02
  3.1406470e-02
  3.7449524e-02
 -1.5727865e-02
  1.7927753e-02
 -6.4141415e-02
 -4.9216617e-03
  2.9736873e-02
 -2.4168437e-02
  2.7259825e-02
  1.0153861e-02
 -5.4866105e-02
  2.5054436e-02
  6.7174020e-03
  4.7487520e-02
  3.8184885e-02
  6.0191307e-02
  1.2185932e-03
 -4.1076886e-03
  3.4992825e-02
  1.1345923e-02
  1.1295896e-02
  5.4853735e-03
 -1.0875134e-02
  1.5181141e-02
  9.4653293e-02
  7.9345435e-02
  1.9810349e-02
  4.1426670e-02
  5.6054641e-04
 -8.1055239e-03
  1.0816418e-02
 -9.0419361e-03
 -1.5721483e-03
  3.2265432e-02
  1.2203091e-03
  4.9171906e-02
  2.5361223e-02
  2.3502477e-03
 -1.6254649e-02
 -1.5572566e-03
 -2.6054589e-02
 -1.5705230e-02
  1.2480726e-02
 -2.6053488e-02
 -2.5319116e-02
 -8.1015915e-01
 -9.5304960e-01
  1.5252866e+00
  1.4455770e+00
  2.2603443e-01
  1.7885684e+00
 -5.1691997e-01
 -2.1498921e+00
 -4.3792430e-01
  6.2352186e-03
 -1.0834756e-01
 -1.5419837e-02
  4.4867301e-01
 -6.4756459e-01
 -4.4304049e-03
 -6.9831580e-01
 -1.9824071e+00
  1.8507171e-01
 -1.6277575e-01
 -7.7681744e-01
  1.3416212e+00
  1.6429605e-01
 -8.8706607e-01
 -4.6814848e-02
 -4.9498402e-02
 -1.2409978e-02
  1.4766862e+00
  1.4065518e+00
  9.2293292e-02
 -5.5779345e-02
  5.0222433e-01
 -3.9099342e-01
  5.4654545e-01
 -3.2454252e+00
 -1.0859890e+00
  3.5539277e-02
 -3.5659721e-01
  1.9684167e+00
 -6.6189498e-01
  4.6430159e-01
 -5.3322107e-02
  2.6738712e-01
 -9.7319549e-01
  9.4790864e-01
 -3.7725806e-02
 -1.1838995e-01
 -1.0070994e-02
  2.4945523e-01
  1.3213488e-02
 -1.6106570e-02
  1.8193745e-03
  3.1496327e-02
  9.3445790e-01
  2.6938918e+00
  2.7206302e+00
  2.5965815e+00
  2.8699216e-01
  3.2479410e+00
  3.0881590e-03
  4.9270314e-01
 -2.4929423e+00
  5.7931191e-01
 -3.1787820e-02
 -2.1273675e+00
 -1.0454149e+00
 -4.1021046e-01
  3.9273453e-01
  4.1393521e-01
  7.3882407e-01
 -7.6515895e-01
 -9.3861228e-01
  1.7967159e-01
  2.1729782e+00
  8.6999106e-01
  1.0321509e+00
  8.0502588e-01
 -3.3401124e-02
 -3.4626770e-01
 -1.2152730e+00
  1.8832047e-02
 -3.5639137e-01
  1.0858580e+00
  1.0480692e+00
  1.4009326e+00
 -8.5157700e-02
  1.9176409e-01
  1.3071337e-01
 -2.4197140e+00
  3.9175508e-04
 -7.3555201e-01
 -1.6853003e-01
  6.3819772e-01
  1.1328997e-03
 -2.3054264e-01
 -1.9766664e-02
 -2.6186523e-01
 -4.7138035e-01
 -2.8843725e-02
 -5.7800019e-01
 -2.0496771e-02
  1.6890928e+00
 -1.1686716e-01
  2.2745799e-01
  9.7892210e-03
  5.5733253e-04
  4.4347517e-02
  8.0214433e-02
  4.3313313e-01
 -1.0374205e+00
  1.1599033e+00
 -1.7932274e+00
  8.3223891e-01
 -2.3604937e+00
  1.4969229e+00
 -3.0401583e+00
  1.3677251e+00
 -1.6489568e-01
 -3.2186359e-01
 -6.7933321e-01
 -4.7720209e-01
 -4.9582648e-01
  5.2914355e-02
 -9.7298911e-03
  1.1804754e-01
  7.0472860e-01
  9.5057853e-02
  4.3555677e-01
 -5.2980089e-01
  8.9306110e-01
  8.5342807e-01
 -1.4610494e+00
  5.0568020e-01
 -6.2042338e-01
  1.2499028e+00
  2.7616860e-03
  3.3352825e-01
  2.5403468e-02
 -5.6076854e-01
 -2.8444025e-01
 -1.7641321e+00
 -2.6558118e-02
  2.3843205e-01
  1.3311735e+00
  8.1776552e-02
  4.2440437e-02
  1.0565363e+00
 -3.1829137e-01
  1.6703083e-01
 -3.6295414e-02
  2.0579442e-01
 -9.4902682e-01
 -3.0780372e-01
 -1.2206645e-01
  6.7193490e-03
  1.2421207e+00
 -3.1811916e-03
  2.7056247e-01
  2.0746958e-02
 -4.2082923e-03
 -3.9900802e-02
  1.5273453e-01
 -1.2986006e-01
  8.0047697e-03
 -2.9167388e-02
  3.1203993e-02
 -4.8824162e-03
  2.0100620e-02
 -5.2203350e-03
  5.1161401e-02
  2.6147464e-02
 -1.4303502e-02
  2.1032624e-02
  1.7557675e-03
  2.3667458e-02
  2.3752121e-02
 -2.6580594e-02
  1.5283288e-02
 -7.3113199e-03
  1.8781025e-02
 -1.4677654e-02
 -4.6884827e-03
 -6.2687146e-03
  4.5788717e-02
  1.2542656e-02
  3.0748306e-02
 -4.4886172e-02
  1.3297014e-01
  8.6375913e-03
 -7.7501859e-04
  5.4144099e-02
  2.2388473e-02
  2.2300663e-03
  1.2313562e-01
 -2.9234525e-02
  4.6046775e-02
  3.5900895e-02
 -4.0238753e-02
 -4.8175035e-03
 -9.0962090e-04
  4.9693119e-03
  7.2173275e-02
 -2.6276443e-02
 -1.9986648e-03
 -2.1063587e-02
  1.2529335e-02
  9.7085116e-03
 -5.4348311e-03
  2.2157144e-02
  5.3995561e-02
 -6.5712936e-02
 -3.2388896e-02
 -4.1600005e-03
  1.5975956e-02
 -2.9120510e-02
 -2.1164520e-02
  2.3176512e-01
 -6.0517685e-03
  5.6982225e-01
 -2.8693971e-01
 -8.0474839e-02
 -6.3134536e-02
 -1.1434837e-01
  1.9012038e+00
  7.5745672e-01
  7.1607649e-01
 -3.3062711e-01
  3.3869487e-03
  1.2816621e-01
 -1.8903863e-01
  1.7099123e-02
  3.5296138e-02
 -4.9660558e-01
  6.8872370e-02
  3.9773133e-01
 -1.6758325e-02
 -1.2862206e+00
  5.3669404e-02
 -3.8375553e-01
  3.2133397e-01
 -5.9466779e-01
 -1.1657550e+00
  3.1749579e-01
  6.9681841e-01
  5.5852532e-02
 -9.1363263e-01
 -8.6642392e-03
 -4.1610897e-03
  1.6534677e-02
 -7.2472084e-01
  5.5137515e-02
  9.4297791e-01
